{"learner":{"attributes":{"scikit_learn":"{\"_estimator_type\": \"regressor\"}"},"feature_names":["year","month","day","drought","day_of_year_sin","day_of_year_cos"],"feature_types":["int","int","int","i","float","float"],"gradient_booster":{"model":{"gbtree_model_param":{"num_parallel_tree":"1","num_trees":"500"},"iteration_indptr":[0,1,2,3,4,5,6,7,8,9,10,11,12,13,14,15,16,17,18,19,20,21,22,23,24,25,26,27,28,29,30,31,32,33,34,35,36,37,38,39,40,41,42,43,44,45,46,47,48,49,50,51,52,53,54,55,56,57,58,59,60,61,62,63,64,65,66,67,68,69,70,71,72,73,74,75,76,77,78,79,80,81,82,83,84,85,86,87,88,89,90,91,92,93,94,95,96,97,98,99,100,101,102,103,104,105,106,107,108,109,110,111,112,113,114,115,116,117,118,119,120,121,122,123,124,125,126,127,128,129,130,131,132,133,134,135,136,137,138,139,140,141,142,143,144,145,146,147,148,149,150,151,152,153,154,155,156,157,158,159,160,161,162,163,164,165,166,167,168,169,170,171,172,173,174,175,176,177,178,179,180,181,182,183,184,185,186,187,188,189,190,191,192,193,194,195,196,197,198,199,200,201,202,203,204,205,206,207,208,209,210,211,212,213,214,215,216,217,218,219,220,221,222,223,224,225,226,227,228,229,230,231,232,233,234,235,236,237,238,239,240,241,242,243,244,245,246,247,248,249,250,251,252,253,254,255,256,257,258,259,260,261,262,263,264,265,266,267,268,269,270,271,272,273,274,275,276,277,278,279,280,281,282,283,284,285,286,287,288,289,290,291,292,293,294,295,296,297,298,299,300,301,302,303,304,305,306,307,308,309,310,311,312,313,314,315,316,317,318,319,320,321,322,323,324,325,326,327,328,329,330,331,332,333,334,335,336,337,338,339,340,341,342,343,344,345,346,347,348,349,350,351,352,353,354,355,356,357,358,359,360,361,362,363,364,365,366,367,368,369,370,371,372,373,374,375,376,377,378,379,380,381,382,383,384,385,386,387,388,389,390,391,392,393,394,395,396,397,398,399,400,401,402,403,404,405,406,407,408,409,410,411,412,413,414,415,416,417,418,419,420,421,422,423,424,425,426,427,428,429,430,431,432,433,434,435,436,437,438,439,440,441,442,443,444,445,446,447,448,449,450,451,452,453,454,455,456,457,458,459,460,461,462,463,464,465,466,467,468,469,470,471,472,473,474,475,476,477,478,479,480,481,482,483,484,485,486,487,488,489,490,491,492,493,494,495,496,497,498,499,500],"tree_info":[0,0,0,0,0,0,0,0,0,0,0,0,0,0,0,0,0,0,0,0,0,0,0,0,0,0,0,0,0,0,0,0,0,0,0,0,0,0,0,0,0,0,0,0,0,0,0,0,0,0,0,0,0,0,0,0,0,0,0,0,0,0,0,0,0,0,0,0,0,0,0,0,0,0,0,0,0,0,0,0,0,0,0,0,0,0,0,0,0,0,0,0,0,0,0,0,0,0,0,0,0,0,0,0,0,0,0,0,0,0,0,0,0,0,0,0,0,0,0,0,0,0,0,0,0,0,0,0,0,0,0,0,0,0,0,0,0,0,0,0,0,0,0,0,0,0,0,0,0,0,0,0,0,0,0,0,0,0,0,0,0,0,0,0,0,0,0,0,0,0,0,0,0,0,0,0,0,0,0,0,0,0,0,0,0,0,0,0,0,0,0,0,0,0,0,0,0,0,0,0,0,0,0,0,0,0,0,0,0,0,0,0,0,0,0,0,0,0,0,0,0,0,0,0,0,0,0,0,0,0,0,0,0,0,0,0,0,0,0,0,0,0,0,0,0,0,0,0,0,0,0,0,0,0,0,0,0,0,0,0,0,0,0,0,0,0,0,0,0,0,0,0,0,0,0,0,0,0,0,0,0,0,0,0,0,0,0,0,0,0,0,0,0,0,0,0,0,0,0,0,0,0,0,0,0,0,0,0,0,0,0,0,0,0,0,0,0,0,0,0,0,0,0,0,0,0,0,0,0,0,0,0,0,0,0,0,0,0,0,0,0,0,0,0,0,0,0,0,0,0,0,0,0,0,0,0,0,0,0,0,0,0,0,0,0,0,0,0,0,0,0,0,0,0,0,0,0,0,0,0,0,0,0,0,0,0,0,0,0,0,0,0,0,0,0,0,0,0,0,0,0,0,0,0,0,0,0,0,0,0,0,0,0,0,0,0,0,0,0,0,0,0,0,0,0,0,0,0,0,0,0,0,0,0,0,0,0,0,0,0,0,0,0,0,0,0,0,0,0,0,0,0,0,0,0,0,0,0,0,0,0,0,0,0,0,0,0,0,0,0,0,0,0,0,0,0,0,0,0,0,0,0,0,0,0,0,0,0,0,0,0,0,0,0,0,0,0,0,0,0],"trees":[{"base_weights":[6.0967806E-5,-6.798932E2,8.1241486E2,-7.248367E2,-4.8112216E2,6.6641095E2,1.1582965E3,-9.663966E1,-7.105524E2,-6.6042145E2,4.1156656E2,6.5640063E2,2.4890044E2,9.514716E1,1.2006903E3,-7.7515735E2,-6.74237E2,-8.277599E1,-6.1537897E2,-4.7223737E2,7.0367926E2,4.864755E2,7.189687E2,1.2291194E2,8.568368E2,-8.249325E1,-7.395377E1,-6.7770593E2,2.9979045E0,-6.3592224E1,-5.444865E1,-5.260512E1,-6.3693686E0,7.3252997E2,3.1482758E2,2.5824136E2,5.482637E2,6.420877E2,8.418466E2,8.682831E1,2.3955475E1,-7.267828E1,-6.438613E1,-1.220737E1,9.605212E0,4.3512096E1,7.689984E1,4.4914737E0,3.7107708E1,1.5218096E1,4.6374557E1,7.1419304E1,5.220329E1,7.089168E1,4.9751236E1,7.469647E1,1.0363336E2],"categories":[],"categories_nodes":[],"categories_segments":[],"categories_sizes":[],"default_left":[0,0,0,0,0,0,0,0,0,0,0,0,0,0,0,0,0,0,0,0,0,0,0,0,0,0,0,0,0,0,0,0,0,0,0,0,0,0,0,0,0,0,0,0,0,0,0,0,0,0,0,0,0,0,0,0,0],"id":0,"left_children":[1,3,5,7,9,11,13,-1,15,17,19,21,-1,-1,23,25,27,-1,29,31,33,35,37,-1,39,-1,-1,41,43,-1,-1,-1,-1,45,47,49,51,53,55,-1,-1,-1,-1,-1,-1,-1,-1,-1,-1,-1,-1,-1,-1,-1,-1,-1,-1],"loss_changes":[2.0028406E9,1.7285952E7,8.265421E7,4.86176E6,5.9013264E7,1.9603072E7,3.145216E6,0E0,3.048192E6,1.79704E6,1.6338866E7,1.1972576E7,0E0,0E0,2.876544E6,3.4912E5,2.309056E6,0E0,1.056E4,3.1825875E5,2.96656E5,4.300592E6,7.442176E6,0E0,3.2226E4,0E0,0E0,1.154848E6,8.155608E4,0E0,0E0,0E0,0E0,1.31772E5,5.9245562E4,1.4333405E6,7.02232E5,4.710112E6,5.167856E6,0E0,0E0,0E0,0E0,0E0,0E0,0E0,0E0,0E0,0E0,0E0,0E0,0E0,0E0,0E0,0E0,0E0,0E0],"parents":[2147483647,0,0,1,1,2,2,3,3,4,4,5,5,6,6,8,8,9,9,10,10,11,11,14,14,15,15,16,16,18,18,19,19,20,20,21,21,22,22,24,24,27,27,28,28,33,33,34,34,35,35,36,36,37,37,38,38],"right_children":[2,4,6,8,10,12,14,-1,16,18,20,22,-1,-1,24,26,28,-1,30,32,34,36,38,-1,40,-1,-1,42,44,-1,-1,-1,-1,46,48,50,52,54,56,-1,-1,-1,-1,-1,-1,-1,-1,-1,-1,-1,-1,-1,-1,-1,-1,-1,-1],"split_conditions":[2.018E3,1.1E1,9E0,2.013E3,2.017E3,9.998518E-1,-1.3301471E-1,-9.663966E1,-5.9126145E-1,2.013E3,-7.0558363E-1,-8.287701E-1,2.4890044E2,9.514716E1,-1.2874818E-1,2.015E3,9.998518E-1,-8.277599E1,2.016E3,1.4E1,-6.021328E-2,2.019E3,2.021E3,1.2291194E2,1.7213356E-2,-8.249325E1,-7.395377E1,2.015E3,2.015E3,-6.3592224E1,-5.444865E1,-5.260512E1,-6.3693686E0,7E0,2.9E1,2.2E1,-4.0148798E-1,5.5601746E-1,6.2541056E-1,8.682831E1,2.3955475E1,-7.267828E1,-6.438613E1,-1.220737E1,9.605212E0,4.3512096E1,7.689984E1,4.4914737E0,3.7107708E1,1.5218096E1,4.6374557E1,7.1419304E1,5.220329E1,7.089168E1,4.9751236E1,7.469647E1,1.0363336E2],"split_indices":[0,1,1,0,0,5,5,0,5,0,4,5,0,0,4,0,5,0,0,2,4,0,0,0,4,0,0,0,0,0,0,0,0,2,2,2,4,5,5,0,0,0,0,0,0,0,0,0,0,0,0,0,0,0,0,0,0],"split_type":[0,0,0,0,0,0,0,0,0,0,0,0,0,0,0,0,0,0,0,0,0,0,0,0,0,0,0,0,0,0,0,0,0,0,0,0,0,0,0,0,0,0,0,0,0,0,0,0,0,0,0,0,0,0,0,0,0],"sum_hessian":[3.624E3,1.973E3,1.651E3,1.607E3,3.66E2,1.163E3,4.88E2,8.6E1,1.521E3,3.05E2,6.1E1,1.158E3,5E0,8.7E1,4.01E2,5.4E2,9.81E2,6.1E1,2.44E2,1.5E1,4.6E1,3.14E2,8.44E2,3.68E2,3.3E1,2.16E2,3.24E2,9.76E2,5E0,1.83E2,6.1E1,1.3E1,2E0,4.2E1,4E0,6.8E1,2.46E2,5.23E2,3.21E2,3.2E1,1E0,3.9E2,5.86E2,2E0,3E0,6E0,3.6E1,1E0,3E0,4.6E1,2.2E1,3E1,2.16E2,3.55E2,1.68E2,2.19E2,1.02E2],"tree_param":{"num_deleted":"0","num_feature":"6","num_nodes":"57","size_leaf_vector":"1"}},{"base_weights":[1.576618E-1,-6.121524E2,7.3181616E2,-6.525973E2,-4.3327637E2,6.0039966E2,1.0431393E3,-8.7086784E1,-6.396918E2,-5.950355E2,3.7207175E2,5.9117834E2,2.2815874E2,8.574056E1,1.0812026E3,-7.026984E2,-6.09095E2,-7.46319E1,-5.543229E2,-4.2869955E2,6.3675836E2,4.3841595E2,6.4742566E2,1.1084102E3,7.9141394E2,-7.4469444E1,-6.7227165E1,-6.120736E2,2.2644246E0,-5.7267555E1,-4.909161E1,-4.7720364E1,-5.944743E0,6.6207715E2,2.9166467E2,2.3330984E2,4.9393784E2,5.7810913E2,7.5821576E2,1.01628174E2,1.1451774E2,8.00502E1,2.2757704E1,-6.576997E1,-5.806888E1,-1.1393542E1,8.884821E0,3.978249E1,6.941769E1,4.2669005E0,3.4324635E1,1.3728661E1,4.1938736E1,6.450776E1,4.7007027E1,7.647035E1,5.2896156E1,6.726077E1,9.337065E1],"categories":[],"categories_nodes":[],"categories_segments":[],"categories_sizes":[],"default_left":[0,0,0,0,0,0,0,0,0,0,0,0,0,0,0,0,0,0,0,0,0,0,0,0,0,0,0,0,0,0,0,0,0,0,0,0,0,0,0,0,0,0,0,0,0,0,0,0,0,0,0,0,0,0,0,0,0,0,0],"id":1,"left_children":[1,3,5,7,9,11,13,-1,15,17,19,21,-1,-1,23,25,27,-1,29,31,33,35,37,39,41,-1,-1,43,45,-1,-1,-1,-1,47,49,51,53,55,57,-1,-1,-1,-1,-1,-1,-1,-1,-1,-1,-1,-1,-1,-1,-1,-1,-1,-1,-1,-1],"loss_changes":[1.6244548E9,1.39984E7,6.696192E7,3.972544E6,4.8031376E7,1.6696448E7,2.530048E6,0E0,2.506048E6,1.471008E6,1.341409E7,9.674848E6,0E0,0E0,2.29232E6,1.26768E5,1.880672E6,0E0,3.968E3,2.58195E5,2.17552E5,3.471944E6,6.050912E6,7.2544E4,1.2544E4,0E0,0E0,1.088704E6,7.048909E4,0E0,0E0,0E0,0E0,8.8582E4,4.9572062E4,1.1752995E6,5.87784E5,4.400928E6,4.20952E6,0E0,0E0,0E0,0E0,0E0,0E0,0E0,0E0,0E0,0E0,0E0,0E0,0E0,0E0,0E0,0E0,0E0,0E0,0E0,0E0],"parents":[2147483647,0,0,1,1,2,2,3,3,4,4,5,5,6,6,8,8,9,9,10,10,11,11,14,14,15,15,16,16,18,18,19,19,20,20,21,21,22,22,23,23,24,24,27,27,28,28,33,33,34,34,35,35,36,36,37,37,38,38],"right_children":[2,4,6,8,10,12,14,-1,16,18,20,22,-1,-1,24,26,28,-1,30,32,34,36,38,40,42,-1,-1,44,46,-1,-1,-1,-1,48,50,52,54,56,58,-1,-1,-1,-1,-1,-1,-1,-1,-1,-1,-1,-1,-1,-1,-1,-1,-1,-1,-1,-1],"split_conditions":[2.018E3,1.1E1,9E0,2.013E3,2.017E3,9.998518E-1,-1.3301471E-1,-8.7086784E1,-6.584016E-1,2.013E3,-7.0558363E-1,-8.287701E-1,2.2815874E2,8.574056E1,-1.4579919E-1,2.015E3,9.998518E-1,-7.46319E1,2.016E3,1.4E1,-6.021328E-2,2.019E3,2.021E3,-9.427611E-1,1.7213356E-2,-7.4469444E1,-6.7227165E1,2.015E3,2.015E3,-5.7267555E1,-4.909161E1,-4.7720364E1,-5.944743E0,7E0,2.9E1,2.2E1,-4.0148798E-1,1.7129314E-1,6.2541056E-1,1.01628174E2,1.1451774E2,8.00502E1,2.2757704E1,-6.576997E1,-5.806888E1,-1.1393542E1,8.884821E0,3.978249E1,6.941769E1,4.2669005E0,3.4324635E1,1.3728661E1,4.1938736E1,6.450776E1,4.7007027E1,7.647035E1,5.2896156E1,6.726077E1,9.337065E1],"split_indices":[0,1,1,0,0,5,5,0,5,0,4,5,0,0,4,0,5,0,0,2,4,0,0,4,4,0,0,0,0,0,0,0,0,2,2,2,4,4,5,0,0,0,0,0,0,0,0,0,0,0,0,0,0,0,0,0,0,0,0],"split_type":[0,0,0,0,0,0,0,0,0,0,0,0,0,0,0,0,0,0,0,0,0,0,0,0,0,0,0,0,0,0,0,0,0,0,0,0,0,0,0,0,0,0,0,0,0,0,0,0,0,0,0,0,0,0,0,0,0,0,0],"sum_hessian":[3.624E3,1.973E3,1.651E3,1.607E3,3.66E2,1.163E3,4.88E2,8.6E1,1.521E3,3.05E2,6.1E1,1.158E3,5E0,8.7E1,4.01E2,4.9E2,1.031E3,6.1E1,2.44E2,1.5E1,4.6E1,3.14E2,8.44E2,3.64E2,3.7E1,1.96E2,2.94E2,1.026E3,5E0,1.83E2,6.1E1,1.3E1,2E0,4.2E1,4E0,6.8E1,2.46E2,5.23E2,3.21E2,1.12E2,2.52E2,3.6E1,1E0,4.1E2,6.16E2,2E0,3E0,6E0,3.6E1,1E0,3E0,4.6E1,2.2E1,3E1,2.16E2,1.06E2,4.17E2,2.19E2,1.02E2],"tree_param":{"num_deleted":"0","num_feature":"6","num_nodes":"59","size_leaf_vector":"1"}},{"base_weights":[3.206753E-1,-5.511611E2,6.5929443E2,-5.8755835E2,-3.901854E2,5.409485E2,9.39653E2,-7.84782E1,-5.7589874E2,-5.361234E2,3.3638272E2,5.3245496E2,2.0914554E2,7.726394E1,9.738758E2,-6.153414E2,-5.3469366E2,-6.728908E1,-4.993247E1,-3.891837E2,5.76227E2,3.9510507E2,5.830263E2,1.00314294E3,7.4777185E2,-6.5614235E1,-5.8678235E2,-5.382856E2,1.6198934E0,-4.328919E1,-5.5484295E0,5.9840894E2,2.7021655E2,2.1078566E2,4.4499548E2,5.2054517E2,6.8289307E2,9.155529E1,1.0400497E2,8.571951E1,6.137967E2,-5.3671856E1,-6.1426247E1,-5.7762432E1,-5.1089016E1,-1.0633972E1,8.218463E0,3.6372566E1,6.2663532E1,4.0535583E0,3.175029E1,1.2385007E1,3.7927208E1,5.8265064E1,4.232798E1,5.8004665E1,3.921246E1,6.0565273E1,8.4124245E1,6.955747E1,4.133944E1],"categories":[],"categories_nodes":[],"categories_segments":[],"categories_sizes":[],"default_left":[0,0,0,0,0,0,0,0,0,0,0,0,0,0,0,0,0,0,0,0,0,0,0,0,0,0,0,0,0,0,0,0,0,0,0,0,0,0,0,0,0,0,0,0,0,0,0,0,0,0,0,0,0,0,0,0,0,0,0,0,0],"id":2,"left_children":[1,3,5,7,9,11,13,-1,15,17,19,21,-1,-1,23,25,27,-1,-1,29,31,33,35,37,39,-1,41,43,45,-1,-1,47,49,51,53,55,57,-1,-1,-1,59,-1,-1,-1,-1,-1,-1,-1,-1,-1,-1,-1,-1,-1,-1,-1,-1,-1,-1,-1,-1],"loss_changes":[1.3177317E9,1.1336576E7,5.430387E7,3.24576E6,3.9094788E7,1.4215424E7,2.042528E6,0E0,2.14464E6,1.204072E6,1.1013681E7,7.82E6,0E0,0E0,1.910112E6,5.13376E5,1.449536E6,0E0,0E0,2.093475E5,1.57333E5,2.802868E6,4.917152E6,1.88896E5,2.06856E5,0E0,3.07296E5,5.09936E5,6.0925918E4,0E0,0E0,5.6918E4,4.143372E4,9.6370225E5,4.91728E5,3.776544E6,3.428864E6,0E0,0E0,0E0,1.38555E5,0E0,0E0,0E0,0E0,0E0,0E0,0E0,0E0,0E0,0E0,0E0,0E0,0E0,0E0,0E0,0E0,0E0,0E0,0E0,0E0],"parents":[2147483647,0,0,1,1,2,2,3,3,4,4,5,5,6,6,8,8,9,9,10,10,11,11,14,14,15,15,16,16,19,19,20,20,21,21,22,22,23,23,24,24,26,26,27,27,28,28,31,31,32,32,33,33,34,34,35,35,36,36,40,40],"right_children":[2,4,6,8,10,12,14,-1,16,18,20,22,-1,-1,24,26,28,-1,-1,30,32,34,36,38,40,-1,42,44,46,-1,-1,48,50,52,54,56,58,-1,-1,-1,60,-1,-1,-1,-1,-1,-1,-1,-1,-1,-1,-1,-1,-1,-1,-1,-1,-1,-1,-1,-1],"split_conditions":[2.018E3,1.1E1,9E0,2.013E3,2.017E3,9.998518E-1,-1.3301471E-1,-7.84782E1,-2.344914E-1,2.013E3,-7.0558363E-1,-8.287701E-1,2.0914554E2,7.726394E1,-1.9667289E-1,2.015E3,9.998518E-1,-6.728908E1,-4.993247E1,1.4E1,-6.021328E-2,2.019E3,2.021E3,-9.427611E-1,2.02E3,-6.5614235E1,-3.375229E-1,2.015E3,2.015E3,-4.328919E1,-5.5484295E0,7E0,2.9E1,2.2E1,-4.0148798E-1,5.5601746E-1,6.2541056E-1,9.155529E1,1.0400497E2,8.571951E1,-6.021328E-2,-5.3671856E1,-6.1426247E1,-5.7762432E1,-5.1089016E1,-1.0633972E1,8.218463E0,3.6372566E1,6.2663532E1,4.0535583E0,3.175029E1,1.2385007E1,3.7927208E1,5.8265064E1,4.232798E1,5.8004665E1,3.921246E1,6.0565273E1,8.4124245E1,6.955747E1,4.133944E1],"split_indices":[0,1,1,0,0,5,5,0,5,0,4,5,0,0,4,0,5,0,0,2,4,0,0,4,0,0,4,0,0,0,0,2,2,2,4,5,5,0,0,0,4,0,0,0,0,0,0,0,0,0,0,0,0,0,0,0,0,0,0,0,0],"split_type":[0,0,0,0,0,0,0,0,0,0,0,0,0,0,0,0,0,0,0,0,0,0,0,0,0,0,0,0,0,0,0,0,0,0,0,0,0,0,0,0,0,0,0,0,0,0,0,0,0,0,0,0,0,0,0,0,0,0,0,0,0],"sum_hessian":[3.624E3,1.973E3,1.651E3,1.607E3,3.66E2,1.163E3,4.88E2,8.6E1,1.521E3,3.05E2,6.1E1,1.158E3,5E0,8.7E1,4.01E2,7.7E2,7.51E2,6.1E1,2.44E2,1.5E1,4.6E1,3.14E2,8.44E2,3.52E2,4.9E1,3.08E2,4.62E2,7.46E2,5E0,1.3E1,2E0,4.2E1,4E0,6.8E1,2.46E2,5.23E2,3.21E2,1.12E2,2.4E2,2.4E1,2.5E1,1.71E2,2.91E2,2.98E2,4.48E2,2E0,3E0,6E0,3.6E1,1E0,3E0,4.6E1,2.2E1,3E1,2.16E2,3.55E2,1.68E2,2.19E2,1.02E2,1.6E1,9E0],"tree_param":{"num_deleted":"0","num_feature":"6","num_nodes":"61","size_leaf_vector":"1"}},{"base_weights":[4.7336066E-1,-4.962484E2,5.940135E2,-5.290329E2,-3.5125192E2,4.873708E2,8.466477E2,-7.072059E1,-5.185007E2,-4.8289417E2,3.0413156E2,4.795484E2,1.9171674E2,7.001711E1,8.7837933E2,-5.720318E2,-4.9329245E2,-6.06687E1,-4.4959598E2,-3.533177E2,5.214732E2,3.560736E2,5.2500995E2,9.047239E2,6.76927E2,-6.0648556E1,-5.4704357E1,-4.9567703E2,1.0552775E0,-4.660581E1,-3.934892E1,-3.9269478E1,-5.178532E0,5.5154816E2,3.059142E1,1.9043623E2,4.0090317E2,4.6867618E2,6.150531E2,8.262188E1,9.364763E1,7.749044E1,5.5668225E2,-5.324905E1,-4.7035877E1,-9.925045E0,7.602075E0,3.3254917E1,5.804142E1,1.1172857E1,3.429938E1,5.2626514E1,3.8114685E1,6.3570034E1,4.2479996E1,5.4536274E1,7.579349E1,4.1528667E1,6.661327E1],"categories":[],"categories_nodes":[],"categories_segments":[],"categories_sizes":[],"default_left":[0,0,0,0,0,0,0,0,0,0,0,0,0,0,0,0,0,0,0,0,0,0,0,0,0,0,0,0,0,0,0,0,0,0,0,0,0,0,0,0,0,0,0,0,0,0,0,0,0,0,0,0,0,0,0,0,0,0,0],"id":3,"left_children":[1,3,5,7,9,11,13,-1,15,17,19,21,-1,-1,23,25,27,-1,29,31,33,35,37,39,41,-1,-1,43,45,-1,-1,-1,-1,47,-1,49,51,53,55,-1,-1,-1,57,-1,-1,-1,-1,-1,-1,-1,-1,-1,-1,-1,-1,-1,-1,-1,-1],"loss_changes":[1.0690329E9,9.197824E6,4.4094976E7,2.650848E6,3.1810212E7,1.2099296E7,1.657824E6,0E0,1.771616E6,9.88592E5,9.043494E6,6.318928E6,0E0,0E0,1.49984E6,8.2336E4,1.228832E6,0E0,4.29E4,1.6963975E5,1.35971E5,2.262668E6,3.997984E6,9.6224E4,1.57688E5,0E0,0E0,7.1608E5,5.2661887E4,0E0,0E0,0E0,0E0,5.985E4,0E0,7.90192E5,4.1116E5,3.570024E6,2.79296E6,0E0,0E0,0E0,1.257355E5,0E0,0E0,0E0,0E0,0E0,0E0,0E0,0E0,0E0,0E0,0E0,0E0,0E0,0E0,0E0,0E0],"parents":[2147483647,0,0,1,1,2,2,3,3,4,4,5,5,6,6,8,8,9,9,10,10,11,11,14,14,15,15,16,16,18,18,19,19,20,20,21,21,22,22,23,23,24,24,27,27,28,28,33,33,35,35,36,36,37,37,38,38,42,42],"right_children":[2,4,6,8,10,12,14,-1,16,18,20,22,-1,-1,24,26,28,-1,30,32,34,36,38,40,42,-1,-1,44,46,-1,-1,-1,-1,48,-1,50,52,54,56,-1,-1,-1,58,-1,-1,-1,-1,-1,-1,-1,-1,-1,-1,-1,-1,-1,-1,-1,-1],"split_conditions":[2.018E3,1.1E1,9E0,2.013E3,2.017E3,9.998518E-1,-1.159346E-1,-7.072059E1,-6.7125994E-1,2.013E3,-7.0558363E-1,-8.287701E-1,1.9171674E2,7.001711E1,-1.9667289E-1,2.015E3,9.998518E-1,-6.06687E1,2.016E3,1.4E1,2.8E1,2.019E3,2.021E3,-9.427611E-1,2.02E3,-6.0648556E1,-5.4704357E1,2.015E3,2.015E3,-4.660581E1,-3.934892E1,-3.9269478E1,-5.178532E0,7E0,3.059142E1,2.2E1,-4.0148798E-1,1.7129314E-1,6.2541056E-1,8.262188E1,9.364763E1,7.749044E1,2.021E3,-5.324905E1,-4.7035877E1,-9.925045E0,7.602075E0,3.3254917E1,5.804142E1,1.1172857E1,3.429938E1,5.2626514E1,3.8114685E1,6.3570034E1,4.2479996E1,5.4536274E1,7.579349E1,4.1528667E1,6.661327E1],"split_indices":[0,1,1,0,0,5,5,0,5,0,4,5,0,0,4,0,5,0,0,2,2,0,0,4,0,0,0,0,0,0,0,0,0,2,0,2,4,4,5,0,0,0,0,0,0,0,0,0,0,0,0,0,0,0,0,0,0,0,0],"split_type":[0,0,0,0,0,0,0,0,0,0,0,0,0,0,0,0,0,0,0,0,0,0,0,0,0,0,0,0,0,0,0,0,0,0,0,0,0,0,0,0,0,0,0,0,0,0,0,0,0,0,0,0,0,0,0,0,0,0,0],"sum_hessian":[3.624E3,1.973E3,1.651E3,1.607E3,3.66E2,1.163E3,4.88E2,8.6E1,1.521E3,3.05E2,6.1E1,1.158E3,5E0,9.1E1,3.97E2,4.8E2,1.041E3,6.1E1,2.44E2,1.5E1,4.6E1,3.14E2,8.44E2,3.48E2,4.9E1,1.92E2,2.88E2,1.036E3,5E0,1.83E2,6.1E1,1.3E1,2E0,3.9E1,7E0,6.8E1,2.46E2,5.23E2,3.21E2,1.08E2,2.4E2,2.4E1,2.5E1,4.14E2,6.22E2,2E0,3E0,6E0,3.3E1,4.6E1,2.2E1,3E1,2.16E2,1.06E2,4.17E2,2.19E2,1.02E2,1.3E1,1.2E1],"tree_param":{"num_deleted":"0","num_feature":"6","num_nodes":"59","size_leaf_vector":"1"}},{"base_weights":[6.021286E-1,-4.4680487E2,5.352152E2,-4.7630917E2,-3.1631522E2,4.391185E2,7.628662E2,-6.3729816E2,-4.6679382E2,-4.350839E2,2.7496747E2,4.3191504E2,1.7574034E2,6.2703197E1,7.907034E2,-6.7126976E1,-4.985651E1,-4.9987753E2,-4.3225345E2,-5.043172E2,-3.8643837E1,-3.2076385E2,4.7191925E2,3.3079492E2,4.7687918E2,8.0911566E2,5.676202E2,-5.33066E1,-4.7664838E2,-4.3515125E2,5.6260175E-1,-5.4699684E1,-4.5350346E1,-3.562302E1,-4.8332928E1,5.1605206E2,3.3103104E1,2.0193709E2,3.6572037E2,4.2089474E2,5.6541156E2,7.433634E2,8.348779E1,4.8694937E2,7.3760034E2,-4.3553616E1,-5.026821E1,-4.6698414E1,-4.129838E1,-9.263375E0,7.0319214E0,-5.8489685E0,-1.4009705E0,3.04045E1,5.5062344E1,1.431499E1,3.0390125E1,4.893223E1,3.40187E1,4.7817E1,3.0792057E1,5.0363415E1,6.828773E1,6.1629555E1,7.779705E1,6.2269093E1,2.0749382E1,5.200073E-1,8.285004E1],"categories":[],"categories_nodes":[],"categories_segments":[],"categories_sizes":[],"default_left":[0,0,0,0,0,0,0,0,0,0,0,0,0,0,0,0,0,0,0,0,0,0,0,0,0,0,0,0,0,0,0,0,0,0,0,0,0,0,0,0,0,0,0,0,0,0,0,0,0,0,0,0,0,0,0,0,0,0,0,0,0,0,0,0,0,0,0,0,0],"id":4,"left_children":[1,3,5,7,9,11,13,15,17,19,21,23,-1,-1,25,-1,-1,27,29,31,-1,33,35,37,39,41,43,-1,45,47,49,-1,-1,-1,51,53,-1,55,57,59,61,63,-1,65,67,-1,-1,-1,-1,-1,-1,-1,-1,-1,-1,-1,-1,-1,-1,-1,-1,-1,-1,-1,-1,-1,-1,-1,-1],"loss_changes":[8.6730157E8,7.449248E6,3.580499E7,2.16576E6,2.589252E7,1.0294576E7,1.353248E6,7.5356E4,1.523136E6,8.35688E5,7.425856E6,5.111968E6,0E0,0E0,1.19192E6,0E0,0E0,3.4032E5,9.43408E5,1.8688E4,0E0,1.3737638E5,1.21407E5,1.546296E6,3.727168E6,4.448E3,1.07048E5,0E0,2.76624E5,3.34256E5,4.5520305E4,0E0,0E0,0E0,2.2641455E2,8.1784E4,0E0,4.3003725E5,7.23528E5,3.049256E6,1.883896E6,1.7448E4,0E0,8.57072E5,5.948685E5,0E0,0E0,0E0,0E0,0E0,0E0,0E0,0E0,0E0,0E0,0E0,0E0,0E0,0E0,0E0,0E0,0E0,0E0,0E0,0E0,0E0,0E0,0E0,0E0],"parents":[2147483647,0,0,1,1,2,2,3,3,4,4,5,5,6,6,7,7,8,8,9,9,10,10,11,11,14,14,17,17,18,18,19,19,21,21,22,22,23,23,24,24,25,25,26,26,28,28,29,29,30,30,34,34,35,35,37,37,38,38,39,39,40,40,41,41,43,43,44,44],"right_children":[2,4,6,8,10,12,14,16,18,20,22,24,-1,-1,26,-1,-1,28,30,32,-1,34,36,38,40,42,44,-1,46,48,50,-1,-1,-1,52,54,-1,56,58,60,62,64,-1,66,68,-1,-1,-1,-1,-1,-1,-1,-1,-1,-1,-1,-1,-1,-1,-1,-1,-1,-1,-1,-1,-1,-1,-1,-1],"split_conditions":[2.018E3,1.1E1,9E0,2.013E3,2.017E3,9.998518E-1,-1.3301471E-1,2.0931464E-1,-2.344914E-1,2.014E3,-7.0558363E-1,-7.775971E-1,1.7574034E2,6.2703197E1,-1.2874818E-1,-6.7126976E1,-4.985651E1,2.015E3,9.998518E-1,2.013E3,-3.8643837E1,1.4E1,2.5E1,2.019E3,2.021E3,-9.427611E-1,2.021E3,-5.33066E1,-2.553533E-1,2.015E3,2.015E3,-5.4699684E1,-4.5350346E1,-3.562302E1,1.5E1,7E0,3.3103104E1,2.2E1,-4.0148798E-1,5.5601746E-1,6.2541056E-1,8E0,8.348779E1,2.02E3,2.5E1,-4.3553616E1,-5.026821E1,-4.6698414E1,-4.129838E1,-9.263375E0,7.0319214E0,-5.8489685E0,-1.4009705E0,3.04045E1,5.5062344E1,1.431499E1,3.0390125E1,4.893223E1,3.40187E1,4.7817E1,3.0792057E1,5.0363415E1,6.828773E1,6.1629555E1,7.779705E1,6.2269093E1,2.0749382E1,5.200073E-1,8.285004E1],"split_indices":[0,1,1,0,0,5,5,5,5,0,4,5,0,0,4,0,0,0,5,0,0,2,2,0,0,4,0,0,4,0,0,0,0,0,2,2,0,2,4,5,5,2,0,0,2,0,0,0,0,0,0,0,0,0,0,0,0,0,0,0,0,0,0,0,0,0,0,0,0],"split_type":[0,0,0,0,0,0,0,0,0,0,0,0,0,0,0,0,0,0,0,0,0,0,0,0,0,0,0,0,0,0,0,0,0,0,0,0,0,0,0,0,0,0,0,0,0,0,0,0,0,0,0,0,0,0,0,0,0,0,0,0,0,0,0,0,0,0,0,0,0],"sum_hessian":[3.624E3,1.973E3,1.651E3,1.607E3,3.66E2,1.163E3,4.88E2,8.6E1,1.521E3,3.05E2,6.1E1,1.158E3,5E0,8.7E1,4.01E2,6.6E1,2E1,7.7E2,7.51E2,1.22E2,1.83E2,1.5E1,4.6E1,3.59E2,7.99E2,3.68E2,3.3E1,3.08E2,4.62E2,7.46E2,5E0,6.1E1,6.1E1,1.3E1,2E0,3.3E1,1.3E1,7.8E1,2.81E2,4.93E2,3.06E2,1.12E2,2.56E2,2.5E1,8E0,1.86E2,2.76E2,2.98E2,4.48E2,2E0,3E0,1E0,1E0,6E0,2.7E1,5.1E1,2.7E1,4.5E1,2.36E2,3.25E2,1.68E2,2.04E2,1.02E2,2.8E1,8.4E1,1.6E1,9E0,1E0,7E0],"tree_param":{"num_deleted":"0","num_feature":"6","num_nodes":"69","size_leaf_vector":"1"}},{"base_weights":[6.895802E-1,-4.0233582E2,4.8227036E2,-4.2889862E2,-2.8485538E2,3.9563678E2,6.8750397E2,-5.74913E2,-4.2027042E2,-3.9202878E2,2.4869162E2,3.8900388E2,1.6109532E2,5.6823708E1,7.1334576E2,-6.0876923E1,-4.6067513E1,-4.6507394E2,-3.991852E2,-4.5469888E2,-3.4800457E1,-2.91367E2,4.2725006E2,2.886984E2,4.259355E2,7.345662E2,5.5096045E2,-4.3089344E1,-4.8155777E1,-4.0111072E2,1.3441975E-1,-4.9317938E2,-4.0888454E1,-3.2315166E1,-4.591626E1,4.6696057E2,3.002924E1,1.5281871E2,3.2548788E2,5.552765E2,3.974483E2,6.7142487E2,7.600759E1,6.3394527E1,4.499765E2,-4.309368E1,-3.805988E1,-8.645813E0,6.504523E0,-5.0394142E1,-2.6970411E1,-5.5565186E0,-1.3309205E0,2.7798395E1,4.9752758E1,5.2812614E0,2.3788313E1,3.644958E1,2.7600508E1,5.1272274E1,6.1393562E1,3.411226E1,4.8041138E1,5.5679115E1,7.041774E1,5.2039673E1,2.8526447E1],"categories":[],"categories_nodes":[],"categories_segments":[],"categories_sizes":[],"default_left":[0,0,0,0,0,0,0,0,0,0,0,0,0,0,0,0,0,0,0,0,0,0,0,0,0,0,0,0,0,0,0,0,0,0,0,0,0,0,0,0,0,0,0,0,0,0,0,0,0,0,0,0,0,0,0,0,0,0,0,0,0,0,0,0,0,0,0],"id":5,"left_children":[1,3,5,7,9,11,13,15,17,19,21,23,-1,-1,25,-1,-1,27,29,31,-1,33,35,37,39,41,43,-1,-1,45,47,49,-1,-1,51,53,-1,55,57,59,61,63,-1,-1,65,-1,-1,-1,-1,-1,-1,-1,-1,-1,-1,-1,-1,-1,-1,-1,-1,-1,-1,-1,-1,-1,-1],"loss_changes":[7.037677E8,6.03792E6,2.9100768E7,1.784224E6,2.1083306E7,8.756432E6,1.101776E6,5.6042E4,1.25216E6,6.86016E5,6.103272E6,4.17048E6,0E0,0E0,9.66768E5,0E0,0E0,6.3496E4,8.01232E5,1.5192E4,0E0,1.09987125E5,9.6729E4,1.524928E6,2.892768E6,5.1792E4,1.33747E5,0E0,0E0,4.70432E5,3.9348438E4,1.3197E4,0E0,0E0,2.0434082E2,5.80945E4,0E0,5.74417E5,3.7616E5,5.9644E4,3.088488E6,1.7168E4,0E0,0E0,1.531245E5,0E0,0E0,0E0,0E0,0E0,0E0,0E0,0E0,0E0,0E0,0E0,0E0,0E0,0E0,0E0,0E0,0E0,0E0,0E0,0E0,0E0,0E0],"parents":[2147483647,0,0,1,1,2,2,3,3,4,4,5,5,6,6,7,7,8,8,9,9,10,10,11,11,14,14,17,17,18,18,19,19,21,21,22,22,23,23,24,24,25,25,26,26,29,29,30,30,31,31,34,34,35,35,37,37,38,38,39,39,40,40,41,41,44,44],"right_children":[2,4,6,8,10,12,14,16,18,20,22,24,-1,-1,26,-1,-1,28,30,32,-1,34,36,38,40,42,44,-1,-1,46,48,50,-1,-1,52,54,-1,56,58,60,62,64,-1,-1,66,-1,-1,-1,-1,-1,-1,-1,-1,-1,-1,-1,-1,-1,-1,-1,-1,-1,-1,-1,-1,-1,-1],"split_conditions":[2.018E3,1.1E1,9E0,2.013E3,2.017E3,9.998518E-1,-1.159346E-1,1.5855938E-1,-6.7125994E-1,2.014E3,-7.0558363E-1,-8.287701E-1,1.6109532E2,5.6823708E1,-1.9667289E-1,-6.0876923E1,-4.6067513E1,-2.553533E-1,9.998518E-1,2.013E3,-3.4800457E1,1.4E1,2.5E1,2.019E3,1.7129314E-1,-9.427611E-1,2.02E3,-4.3089344E1,-4.8155777E1,2.015E3,2.015E3,-4.3022234E-2,-4.0888454E1,-3.2315166E1,1.5E1,7E0,3.002924E1,1.5E1,1.11659005E-1,-5.4884297E-1,2.021E3,8E0,7.600759E1,6.3394527E1,-6.021328E-2,-4.309368E1,-3.805988E1,-8.645813E0,6.504523E0,-5.0394142E1,-2.6970411E1,-5.5565186E0,-1.3309205E0,2.7798395E1,4.9752758E1,5.2812614E0,2.3788313E1,3.644958E1,2.7600508E1,5.1272274E1,6.1393562E1,3.411226E1,4.8041138E1,5.5679115E1,7.041774E1,5.2039673E1,2.8526447E1],"split_indices":[0,1,1,0,0,5,5,5,5,0,4,5,0,0,4,0,0,4,5,0,0,2,2,0,4,4,0,0,0,0,0,4,0,0,2,2,0,2,4,5,0,2,0,0,4,0,0,0,0,0,0,0,0,0,0,0,0,0,0,0,0,0,0,0,0,0,0],"split_type":[0,0,0,0,0,0,0,0,0,0,0,0,0,0,0,0,0,0,0,0,0,0,0,0,0,0,0,0,0,0,0,0,0,0,0,0,0,0,0,0,0,0,0,0,0,0,0,0,0,0,0,0,0,0,0,0,0,0,0,0,0,0,0,0,0,0,0],"sum_hessian":[3.624E3,1.973E3,1.651E3,1.607E3,3.66E2,1.163E3,4.88E2,8.6E1,1.521E3,3.05E2,6.1E1,1.158E3,5E0,9.1E1,3.97E2,6.3E1,2.3E1,4.8E2,1.041E3,1.22E2,1.83E2,1.5E1,4.6E1,3.14E2,8.44E2,3.48E2,4.9E1,1.65E2,3.15E2,1.036E3,5E0,6.1E1,6.1E1,1.3E1,2E0,3.3E1,1.3E1,6.8E1,2.46E2,1.49E2,6.95E2,1.08E2,2.4E2,2.4E1,2.5E1,4.14E2,6.22E2,2E0,3E0,5.7E1,4E0,1E0,1E0,6E0,2.7E1,3.2E1,3.6E1,1.34E2,1.12E2,9.2E1,5.7E1,4.17E2,2.78E2,2.8E1,8E1,1.6E1,9E0],"tree_param":{"num_deleted":"0","num_feature":"6","num_nodes":"67","size_leaf_vector":"1"}},{"base_weights":[7.5462425E-1,-3.6228772E2,4.3455902E2,-3.861838E2,-2.5660056E2,3.5645886E2,6.1957745E2,-5.1865094E2,-3.7835803E2,-3.5332608E2,2.2492531E2,3.503519E2,1.4767072E2,5.0886328E2,6.4227216E2,-5.4687813E1,-4.1039444E1,-4.0611163E2,-3.494001E2,-4.101904E2,-3.1339325E2,-2.6468045E2,3.8681396E2,2.6746335E2,3.8721384E2,5.152829E1,2.4523026E2,6.6078253E2,4.987436E2,-4.3491447E1,-3.860119E2,-3.5173688E2,-2.3592122E-1,-4.4510922E2,-3.6865562E1,-3.461834E2,-2.9514683E1,-2.9314472E1,-4.362044E1,4.0240402E2,1.7537659E2,1.6392572E2,2.955201E2,3.4100198E2,4.6031296E2,3.718458E1,-6.730817E0,6.045997E1,6.843838E1,5.7308655E1,4.0807755E2,-3.4925602E1,-4.0634068E1,-3.7749233E1,-3.3380234E1,-8.06943E0,6.016684E0,-4.579006E1,-2.7919153E1,-3.821442E1,-2.5515455E1,-5.2786927E0,-1.2643738E0,8.564588E0,4.0790672E1,-8.353149E-1,2.2339731E1,2.8182264E1,1.2189465E1,4.0096313E1,2.7380743E1,3.925617E1,2.3952593E1,4.0516537E1,5.6560364E1,4.7141823E1,2.595906E1],"categories":[],"categories_nodes":[],"categories_segments":[],"categories_sizes":[],"default_left":[0,0,0,0,0,0,0,0,0,0,0,0,0,0,0,0,0,0,0,0,0,0,0,0,0,0,0,0,0,0,0,0,0,0,0,0,0,0,0,0,0,0,0,0,0,0,0,0,0,0,0,0,0,0,0,0,0,0,0,0,0,0,0,0,0,0,0,0,0,0,0,0,0,0,0,0,0],"id":6,"left_children":[1,3,5,7,9,11,13,15,17,19,21,23,-1,25,27,-1,-1,29,31,33,35,37,39,41,43,-1,45,47,49,-1,51,53,55,57,-1,59,-1,-1,61,63,65,67,69,71,73,-1,-1,-1,-1,-1,75,-1,-1,-1,-1,-1,-1,-1,-1,-1,-1,-1,-1,-1,-1,-1,-1,-1,-1,-1,-1,-1,-1,-1,-1,-1,-1],"loss_changes":[5.710564E8,4.886256E6,2.3650496E7,1.470704E6,1.7172804E7,7.445904E6,9.0184E5,4.1418E4,1.081312E6,5.663E5,5.016602E6,3.43768E6,0E0,2.257E4,7.3848E5,0E0,0E0,2.78472E5,6.13496E5,1.4302E4,7.912E3,8.788975E4,8.4355E4,9.97334E5,2.545464E6,0E0,1.8331714E5,5.4288E4,1.03155E5,0E0,2.0404E5,2.1904E5,3.401457E4,3.741E3,0E0,9.89025E4,0E0,0E0,1.8441797E2,4.0014E4,4.5980234E4,3.5711875E5,5.35836E5,2.490616E6,1.55344E6,0E0,0E0,0E0,0E0,0E0,1.221615E5,0E0,0E0,0E0,0E0,0E0,0E0,0E0,0E0,0E0,0E0,0E0,0E0,0E0,0E0,0E0,0E0,0E0,0E0,0E0,0E0,0E0,0E0,0E0,0E0,0E0,0E0],"parents":[2147483647,0,0,1,1,2,2,3,3,4,4,5,5,6,6,7,7,8,8,9,9,10,10,11,11,13,13,14,14,17,17,18,18,19,19,20,20,21,21,22,22,23,23,24,24,26,26,27,27,28,28,30,30,31,31,32,32,33,33,35,35,38,38,39,39,40,40,41,41,42,42,43,43,44,44,50,50],"right_children":[2,4,6,8,10,12,14,16,18,20,22,24,-1,26,28,-1,-1,30,32,34,36,38,40,42,44,-1,46,48,50,-1,52,54,56,58,-1,60,-1,-1,62,64,66,68,70,72,74,-1,-1,-1,-1,-1,76,-1,-1,-1,-1,-1,-1,-1,-1,-1,-1,-1,-1,-1,-1,-1,-1,-1,-1,-1,-1,-1,-1,-1,-1,-1,-1],"split_conditions":[2.018E3,1.1E1,9E0,2.013E3,2.017E3,9.998518E-1,-1.3301471E-1,1.9245158E-1,-2.344914E-1,2.014E3,-7.0558363E-1,-7.775971E-1,1.4767072E2,2.2E1,-1.9667289E-1,-5.4687813E1,-4.1039444E1,2.015E3,9.998518E-1,2.013E3,-6.4205474E-1,1.4E1,-6.021328E-2,2.019E3,2.021E3,5.152829E1,2.02E3,-9.427611E-1,2.02E3,-4.3491447E1,-3.375229E-1,2.015E3,2.015E3,-6.8802424E-2,-3.6865562E1,2.016E3,-2.9514683E1,-2.9314472E1,1.5E1,-6.870528E-1,2.9E1,-3.375229E-1,-4.0148798E-1,5.5601746E-1,6.2541056E-1,3.718458E1,-6.730817E0,6.045997E1,6.843838E1,5.7308655E1,-6.021328E-2,-3.4925602E1,-4.0634068E1,-3.7749233E1,-3.3380234E1,-8.06943E0,6.016684E0,-4.579006E1,-2.7919153E1,-3.821442E1,-2.5515455E1,-5.2786927E0,-1.2643738E0,8.564588E0,4.0790672E1,-8.353149E-1,2.2339731E1,2.8182264E1,1.2189465E1,4.0096313E1,2.7380743E1,3.925617E1,2.3952593E1,4.0516537E1,5.6560364E1,4.7141823E1,2.595906E1],"split_indices":[0,1,1,0,0,5,5,5,5,0,4,5,0,2,4,0,0,0,5,0,4,2,4,0,0,0,0,4,0,0,4,0,0,4,0,0,0,0,2,4,2,4,4,5,5,0,0,0,0,0,4,0,0,0,0,0,0,0,0,0,0,0,0,0,0,0,0,0,0,0,0,0,0,0,0,0,0],"split_type":[0,0,0,0,0,0,0,0,0,0,0,0,0,0,0,0,0,0,0,0,0,0,0,0,0,0,0,0,0,0,0,0,0,0,0,0,0,0,0,0,0,0,0,0,0,0,0,0,0,0,0,0,0,0,0,0,0,0,0,0,0,0,0,0,0,0,0,0,0,0,0,0,0,0,0,0,0],"sum_hessian":[3.624E3,1.973E3,1.651E3,1.607E3,3.66E2,1.163E3,4.88E2,8.6E1,1.521E3,3.05E2,6.1E1,1.158E3,5E0,8.7E1,4.01E2,6.5E1,2.1E1,7.7E2,7.51E2,1.22E2,1.83E2,1.5E1,4.6E1,3.59E2,7.99E2,8.4E1,3E0,3.52E2,4.9E1,3.08E2,4.62E2,7.46E2,5E0,6.1E1,6.1E1,5.9E1,1.24E2,1.3E1,2E0,4.2E1,4E0,7.8E1,2.81E2,4.93E2,3.06E2,2E0,1E0,1.12E2,2.4E2,2.4E1,2.5E1,1.71E2,2.91E2,2.98E2,4.48E2,2E0,3E0,5.5E1,6E0,4E1,1.9E1,1E0,1E0,1E0,4.1E1,1E0,3E0,1.9E1,5.9E1,4.5E1,2.36E2,3.25E2,1.68E2,2.04E2,1.02E2,1.6E1,9E0],"tree_param":{"num_deleted":"0","num_feature":"6","num_nodes":"77","size_leaf_vector":"1"}},{"base_weights":[7.6200914E-1,-3.2629034E2,3.915614E2,-3.477445E2,-2.314005E2,3.211702E2,5.583177E2,-4.6788617E2,-3.4064853E2,-3.1865955E2,2.0299733E2,3.1554807E2,1.3536484E2,4.5890854E2,5.7869E2,-4.8948635E1,-3.578918E1,-3.7492004E2,-3.214209E2,-3.7007037E2,-2.8256067E2,-2.4045352E2,3.4964023E2,2.4101659E2,3.4869278E2,4.643608E1,2.2832068E2,5.934149E2,4.383475E2,-4.024473E1,-3.553867E2,-3.2306244E2,-5.544637E-1,-4.017872E2,-3.323847E1,-3.1262723E2,-2.6586823E1,-2.6592413E1,-4.143941E1,3.8390228E2,2.414581E1,1.4804419E2,2.6620737E2,4.72498E2,3.2418704E2,3.470561E1,-6.394275E0,5.4467474E2,6.1315075E1,3.8961075E2,5.73759E2,-3.204292E1,-3.735098E1,-3.4599255E1,-3.0723837E1,-7.531466E0,5.5654297E0,-4.0674923E1,-1.6861706E1,-3.839592E1,-2.6736227E1,-5.0147586E0,-1.2011536E0,2.1919338E1,4.113687E1,1.1834737E1,3.039892E1,3.075617E1,2.2019323E1,4.3107033E1,5.164932E1,2.7358358E1,3.98793E1,4.4465694E1,5.723905E1,4.234863E1,-3.6414112E1,6.1119213E1,1.3714661E1],"categories":[],"categories_nodes":[],"categories_segments":[],"categories_sizes":[],"default_left":[0,0,0,0,0,0,0,0,0,0,0,0,0,0,0,0,0,0,0,0,0,0,0,0,0,0,0,0,0,0,0,0,0,0,0,0,0,0,0,0,0,0,0,0,0,0,0,0,0,0,0,0,0,0,0,0,0,0,0,0,0,0,0,0,0,0,0,0,0,0,0,0,0,0,0,0,0,0,0],"id":7,"left_children":[1,3,5,7,9,11,13,15,17,19,21,23,-1,25,27,-1,-1,29,31,33,35,37,39,41,43,-1,45,47,49,-1,51,53,55,57,-1,59,-1,-1,61,63,-1,65,67,69,71,-1,-1,73,-1,75,77,-1,-1,-1,-1,-1,-1,-1,-1,-1,-1,-1,-1,-1,-1,-1,-1,-1,-1,-1,-1,-1,-1,-1,-1,-1,-1,-1,-1],"loss_changes":[4.6344576E8,3.93816E6,1.9212144E7,1.211488E6,1.3975872E7,6.329552E6,7.24768E5,3.152E4,8.82432E5,4.6333E5,4.1158652E6,2.779064E6,0E0,4.614E3,5.70608E5,0E0,0E0,1.47864E5,5.1704E5,1.347E4,9.23E3,7.00845E4,8.15115E4,8.03728E5,2.273976E6,0E0,1.6099977E5,1.3296E4,5.36375E4,0E0,8.6216E4,2.482E5,2.9404652E4,3.15E3,0E0,9.1074E4,0E0,0E0,1.6643945E2,6.36455E4,0E0,3.2987838E5,4.68892E5,1.4296E4,2.424136E6,0E0,0E0,5.8724E4,0E0,1.0223565E6,6.32715E4,0E0,0E0,0E0,0E0,0E0,0E0,0E0,0E0,0E0,0E0,0E0,0E0,0E0,0E0,0E0,0E0,0E0,0E0,0E0,0E0,0E0,0E0,0E0,0E0,0E0,0E0,0E0,0E0],"parents":[2147483647,0,0,1,1,2,2,3,3,4,4,5,5,6,6,7,7,8,8,9,9,10,10,11,11,13,13,14,14,17,17,18,18,19,19,20,20,21,21,22,22,23,23,24,24,26,26,27,27,28,28,30,30,31,31,32,32,33,33,35,35,38,38,39,39,41,41,42,42,43,43,44,44,47,47,49,49,50,50],"right_children":[2,4,6,8,10,12,14,16,18,20,22,24,-1,26,28,-1,-1,30,32,34,36,38,40,42,44,-1,46,48,50,-1,52,54,56,58,-1,60,-1,-1,62,64,-1,66,68,70,72,-1,-1,74,-1,76,78,-1,-1,-1,-1,-1,-1,-1,-1,-1,-1,-1,-1,-1,-1,-1,-1,-1,-1,-1,-1,-1,-1,-1,-1,-1,-1,-1,-1],"split_conditions":[2.018E3,1.1E1,9E0,2.013E3,2.017E3,9.998518E-1,-1.3301471E-1,2.595118E-1,-5.9126145E-1,2.014E3,-7.0558363E-1,-7.775971E-1,1.3536484E2,2.2E1,-1.5430883E-1,-4.8948635E1,-3.578918E1,2.015E3,9.998518E-1,2.013E3,-6.4205474E-1,1.4E1,2.5E1,2.019E3,1.7129314E-1,4.643608E1,2.02E3,-9.427611E-1,3E1,-4.024473E1,-2.553533E-1,2.015E3,2.015E3,-8.606997E-3,-3.323847E1,2.015E3,-2.6586823E1,-2.6592413E1,1.5E1,7E0,2.414581E1,2.8E1,8.59648E-2,-5.4884297E-1,2.021E3,3.470561E1,-6.394275E0,8E0,6.1315075E1,-2.5818441E-2,1.7213356E-2,-3.204292E1,-3.735098E1,-3.4599255E1,-3.0723837E1,-7.531466E0,5.5654297E0,-4.0674923E1,-1.6861706E1,-3.839592E1,-2.6736227E1,-5.0147586E0,-1.2011536E0,2.1919338E1,4.113687E1,1.1834737E1,3.039892E1,3.075617E1,2.2019323E1,4.3107033E1,5.164932E1,2.7358358E1,3.98793E1,4.4465694E1,5.723905E1,4.234863E1,-3.6414112E1,6.1119213E1,1.3714661E1],"split_indices":[0,1,1,0,0,5,5,5,5,0,4,5,0,2,4,0,0,0,5,0,4,2,2,0,4,0,0,4,2,0,4,0,0,4,0,0,0,0,2,2,0,2,4,5,0,0,0,2,0,4,4,0,0,0,0,0,0,0,0,0,0,0,0,0,0,0,0,0,0,0,0,0,0,0,0,0,0,0,0],"split_type":[0,0,0,0,0,0,0,0,0,0,0,0,0,0,0,0,0,0,0,0,0,0,0,0,0,0,0,0,0,0,0,0,0,0,0,0,0,0,0,0,0,0,0,0,0,0,0,0,0,0,0,0,0,0,0,0,0,0,0,0,0,0,0,0,0,0,0,0,0,0,0,0,0,0,0,0,0,0,0],"sum_hessian":[3.624E3,1.973E3,1.651E3,1.607E3,3.66E2,1.163E3,4.88E2,8.6E1,1.521E3,3.05E2,6.1E1,1.158E3,5E0,8.7E1,4.01E2,6.9E1,1.7E1,5.4E2,9.81E2,1.22E2,1.83E2,1.5E1,4.6E1,3.59E2,7.99E2,8.4E1,3E0,3.6E2,4.1E1,2.16E2,3.24E2,9.76E2,5E0,6.1E1,6.1E1,5.9E1,1.24E2,1.3E1,2E0,3.3E1,1.3E1,7.8E1,2.81E2,1.29E2,6.7E2,2E0,1E0,1.12E2,2.48E2,3.3E1,8E0,1.17E2,2.07E2,3.9E2,5.86E2,2E0,3E0,5.9E1,2E0,2E1,3.9E1,1E0,1E0,6E0,2.7E1,6.7E1,1.1E1,1.45E2,1.36E2,7.2E1,5.7E1,4.02E2,2.68E2,2.8E1,8.4E1,3.2E1,1E0,7E0,1E0],"tree_param":{"num_deleted":"0","num_feature":"6","num_nodes":"79","size_leaf_vector":"1"}},{"base_weights":[7.7439237E-1,-2.9385876E2,3.528356E2,-3.1313278E2,-2.086095E2,2.8939023E2,5.0313733E2,-4.2207156E2,-3.0669995E2,-2.8738998E2,1.8357494E2,2.84215E2,1.24084435E2,4.160478E2,5.220044E2,-4.5200222E1,-3.5013664E1,-3.298617E2,-2.8254514E2,-3.3380133E2,-2.5480309E2,-2.1845868E2,3.1653162E2,2.102421E2,3.1145435E2,4.4270504E1,3.522309E2,5.370622E2,4.0646115E2,-3.0251453E2,-3.44414E2,-2.8442972E2,-8.266805E-1,-3.6253647E2,-2.9968231E1,-2.8363095E2,-2.3997503E1,-2.412312E1,-3.936743E1,3.360829E2,1.7920877E2,1.0834676E2,2.3785559E2,4.1842032E2,2.8795383E2,3.8522778E1,2.0508688E2,5.036468E1,5.674086E2,4.7137756E1,3.284084E2,-3.29197E1,-2.8285028E1,-3.647052E1,-3.2970806E1,-2.5348951E1,-2.9822306E1,3.814392E0,-9.783984E0,-3.8171116E1,-2.6952963E1,-3.1413046E1,-2.0609877E1,-4.76402E0,-1.141095E0,6.079517E0,3.415827E1,8.3893385E0,2.5355082E1,2.3775091E1,5.801293E0,2.6804306E1,1.9968601E1,3.995813E1,5.1511806E1,2.3983921E1,3.467458E1,3.0691294E1,1.1999271E1,4.4771088E1,5.852907E1,2.2769466E1,4.1160713E1],"categories":[],"categories_nodes":[],"categories_segments":[],"categories_sizes":[],"default_left":[0,0,0,0,0,0,0,0,0,0,0,0,0,0,0,0,0,0,0,0,0,0,0,0,0,0,0,0,0,0,0,0,0,0,0,0,0,0,0,0,0,0,0,0,0,0,0,0,0,0,0,0,0,0,0,0,0,0,0,0,0,0,0,0,0,0,0,0,0,0,0,0,0,0,0,0,0,0,0,0,0,0,0],"id":8,"left_children":[1,3,5,7,9,11,13,15,17,19,21,23,-1,25,27,-1,-1,29,31,33,35,37,39,41,43,-1,45,47,49,51,53,55,57,59,-1,61,-1,-1,63,65,67,69,71,73,75,-1,77,-1,79,-1,81,-1,-1,-1,-1,-1,-1,-1,-1,-1,-1,-1,-1,-1,-1,-1,-1,-1,-1,-1,-1,-1,-1,-1,-1,-1,-1,-1,-1,-1,-1,-1,-1],"loss_changes":[3.7612096E8,3.178144E6,1.5607776E7,9.97408E5,1.1391766E7,5.37888E6,5.86312E5,2.9054E4,7.58304E5,3.77742E5,3.3832385E6,2.269864E6,0E0,5.73E2,4.74152E5,0E0,0E0,2.0264E5,3.99016E5,1.1946E4,1.0589E4,5.5757062E4,6.5958E4,8.60541E5,2.003648E6,0E0,7.6364E4,6.8128E4,9.8541E4,5.1704E4,2.776E4,2.432E5,2.6415963E4,7.6865E3,0E0,7.0045E4,0E0,0E0,1.5021191E2,3.97945E4,3.5416297E4,4.3563244E5,2.31078E5,6.742E4,1.885648E6,0E0,3.2491094E4,0E0,1.1254E5,0E0,1.2414E5,0E0,0E0,0E0,0E0,0E0,0E0,0E0,0E0,0E0,0E0,0E0,0E0,0E0,0E0,0E0,0E0,0E0,0E0,0E0,0E0,0E0,0E0,0E0,0E0,0E0,0E0,0E0,0E0,0E0,0E0,0E0,0E0],"parents":[2147483647,0,0,1,1,2,2,3,3,4,4,5,5,6,6,7,7,8,8,9,9,10,10,11,11,13,13,14,14,17,17,18,18,19,19,20,20,21,21,22,22,23,23,24,24,26,26,27,27,28,28,29,29,30,30,31,31,32,32,33,33,35,35,38,38,39,39,40,40,41,41,42,42,43,43,44,44,46,46,48,48,50,50],"right_children":[2,4,6,8,10,12,14,16,18,20,22,24,-1,26,28,-1,-1,30,32,34,36,38,40,42,44,-1,46,48,50,52,54,56,58,60,-1,62,-1,-1,64,66,68,70,72,74,76,-1,78,-1,80,-1,82,-1,-1,-1,-1,-1,-1,-1,-1,-1,-1,-1,-1,-1,-1,-1,-1,-1,-1,-1,-1,-1,-1,-1,-1,-1,-1,-1,-1,-1,-1,-1,-1],"split_conditions":[2.018E3,1.1E1,9E0,2.013E3,2.017E3,9.998518E-1,-1.159346E-1,5.591699E-2,-2.344914E-1,2.014E3,-7.0558363E-1,-8.287701E-1,1.24084435E2,-9.275417E-1,-1.9667289E-1,-4.5200222E1,-3.5013664E1,-3.6171374E-1,9.998518E-1,2.013E3,-6.551564E-1,1.4E1,2.8E1,2.019E3,1.7129314E-1,4.4270504E1,7E0,2.02E3,2.02E3,2.015E3,2.015E3,6.021328E-2,2.017E3,-1.9667289E-1,-2.9968231E1,2.016E3,-2.3997503E1,-2.412312E1,1.5E1,-6.870528E-1,3E1,-9.866579E-1,1.11659005E-1,9.962982E-1,8.6314213E-1,3.8522778E1,2.019E3,5.036468E1,-9.9325687E-1,4.7137756E1,2.021E3,-3.29197E1,-2.8285028E1,-3.647052E1,-3.2970806E1,-2.5348951E1,-2.9822306E1,3.814392E0,-9.783984E0,-3.8171116E1,-2.6952963E1,-3.1413046E1,-2.0609877E1,-4.76402E0,-1.141095E0,6.079517E0,3.415827E1,8.3893385E0,2.5355082E1,2.3775091E1,5.801293E0,2.6804306E1,1.9968601E1,3.995813E1,5.1511806E1,2.3983921E1,3.467458E1,3.0691294E1,1.1999271E1,4.4771088E1,5.852907E1,2.2769466E1,4.1160713E1],"split_indices":[0,1,1,0,0,5,5,5,5,0,4,5,0,4,4,0,0,4,5,0,4,2,2,0,4,0,2,0,0,0,0,4,0,4,0,0,0,0,2,4,2,5,4,5,4,0,0,0,4,0,0,0,0,0,0,0,0,0,0,0,0,0,0,0,0,0,0,0,0,0,0,0,0,0,0,0,0,0,0,0,0,0,0],"split_type":[0,0,0,0,0,0,0,0,0,0,0,0,0,0,0,0,0,0,0,0,0,0,0,0,0,0,0,0,0,0,0,0,0,0,0,0,0,0,0,0,0,0,0,0,0,0,0,0,0,0,0,0,0,0,0,0,0,0,0,0,0,0,0,0,0,0,0,0,0,0,0,0,0,0,0,0,0,0,0,0,0,0,0],"sum_hessian":[3.624E3,1.973E3,1.651E3,1.607E3,3.66E2,1.163E3,4.88E2,8.6E1,1.521E3,3.05E2,6.1E1,1.158E3,5E0,9.1E1,3.97E2,5.7E1,2.9E1,7.7E2,7.51E2,1.22E2,1.83E2,1.5E1,4.6E1,3.14E2,8.44E2,6E1,3.1E1,3.48E2,4.9E1,2.75E2,4.95E2,7.46E2,5E0,6.1E1,6.1E1,5.6E1,1.27E2,1.3E1,2E0,3.9E1,7E0,6.8E1,2.46E2,1.49E2,6.95E2,2.4E1,7E0,1.74E2,1.74E2,2.4E1,2.5E1,1.1E2,1.65E2,1.98E2,2.97E2,2.36E2,5.1E2,4E0,1E0,4.8E1,1.3E1,3.8E1,1.8E1,1E0,1E0,1E0,3.8E1,4E0,3E0,1.8E1,5E1,1.34E2,1.12E2,1.29E2,2E1,3.85E2,3.1E2,2E0,5E0,2.6E1,1.48E2,1.3E1,1.2E1],"tree_param":{"num_deleted":"0","num_feature":"6","num_nodes":"83","size_leaf_vector":"1"}},{"base_weights":[7.911978E-1,-2.646751E2,3.1800046E2,-2.8198868E2,-1.8809503E2,2.607524E2,4.5362158E2,-3.807864E2,-2.7615594E2,-2.5921017E2,1.6592635E2,2.559889E2,1.1374406E2,3.7580695E2,4.7046912E2,-4.0328743E1,-3.0491766E1,-3.0926852E2,-2.619676E2,-3.011943E2,-2.2973593E2,-1.984896E2,2.8645248E2,1.9813861E2,2.8462033E2,4.4014202E1,3.4798303E2,4.8119488E1,3.414875E2,-3.3030533E1,-2.940769E2,-2.631854E2,-1.7389526E0,-3.273332E2,-2.7019743E1,-2.534275E2,-2.1466551E2,-2.1883116E1,-3.7399048E1,3.1503885E2,1.9656757E2,2.899811E2,1.7622546E2,2.4527837E2,3.465067E2,2.5478638E2,3.8904254E2,2.6434335E2,5.264053E2,-3.5300663E1,-2.8527649E1,-2.8415323E1,-2.4880716E1,-7.2836547E0,5.201898E0,-3.3689236E1,-2.0409788E1,-3.1553772E1,-2.152011E1,-1.7738409E1,-2.3062292E1,-4.525818E0,-1.0840393E0,1.7112684E1,3.3976547E1,8.174979E0,2.0889137E1,1.9160782E1,3.1423313E1,9.444783E0,1.9752216E1,2.9229603E1,1.5813802E1,2.9645811E1,4.4411495E1,1.1667339E1,3.8317657E1,4.0209713E1,1.5144538E1,3.618426E1,7.2160325E0,-8.64054E0,6.1380726E1],"categories":[],"categories_nodes":[],"categories_segments":[],"categories_sizes":[],"default_left":[0,0,0,0,0,0,0,0,0,0,0,0,0,0,0,0,0,0,0,0,0,0,0,0,0,0,0,0,0,0,0,0,0,0,0,0,0,0,0,0,0,0,0,0,0,0,0,0,0,0,0,0,0,0,0,0,0,0,0,0,0,0,0,0,0,0,0,0,0,0,0,0,0,0,0,0,0,0,0,0,0,0,0],"id":9,"left_children":[1,3,5,7,9,11,13,15,17,19,21,23,-1,25,27,-1,-1,29,31,33,35,37,39,41,43,-1,45,-1,47,-1,49,51,53,55,-1,57,59,-1,61,63,65,67,69,71,73,75,77,79,81,-1,-1,-1,-1,-1,-1,-1,-1,-1,-1,-1,-1,-1,-1,-1,-1,-1,-1,-1,-1,-1,-1,-1,-1,-1,-1,-1,-1,-1,-1,-1,-1,-1,-1],"loss_changes":[3.053395E8,2.564224E6,1.270792E7,8.21464E5,9.282703E6,4.569792E6,4.64272E5,2.5551E4,6.3404E5,3.09466E5,2.78E6,1.863304E6,0E0,1.1524E4,3.8628E5,0E0,0E0,4.6992E4,3.39264E5,1.1213E4,1.1293E4,4.424525E4,5.8839E4,7.27759E5,1.797056E6,0E0,1.649125E5,0E0,3.4586925E5,0E0,3.9838E4,2.50976E5,2.6721242E4,4.279E3,0E0,8.87965E4,2.98865E4,0E0,1.3556738E2,6.284475E4,2.7330625E3,1.1395E5,5.29946E5,1.904014E6,1.324116E6,3.8087E5,8.1784E4,4.610695E5,5.35084E5,0E0,0E0,0E0,0E0,0E0,0E0,0E0,0E0,0E0,0E0,0E0,0E0,0E0,0E0,0E0,0E0,0E0,0E0,0E0,0E0,0E0,0E0,0E0,0E0,0E0,0E0,0E0,0E0,0E0,0E0,0E0,0E0,0E0,0E0],"parents":[2147483647,0,0,1,1,2,2,3,3,4,4,5,5,6,6,7,7,8,8,9,9,10,10,11,11,13,13,14,14,17,17,18,18,19,19,20,20,21,21,22,22,23,23,24,24,26,26,28,28,30,30,31,31,32,32,33,33,35,35,36,36,38,38,39,39,40,40,41,41,42,42,43,43,44,44,45,45,46,46,47,47,48,48],"right_children":[2,4,6,8,10,12,14,16,18,20,22,24,-1,26,28,-1,-1,30,32,34,36,38,40,42,44,-1,46,-1,48,-1,50,52,54,56,-1,58,60,-1,62,64,66,68,70,72,74,76,78,80,82,-1,-1,-1,-1,-1,-1,-1,-1,-1,-1,-1,-1,-1,-1,-1,-1,-1,-1,-1,-1,-1,-1,-1,-1,-1,-1,-1,-1,-1,-1,-1,-1,-1,-1],"split_conditions":[2.018E3,1.1E1,9E0,2.013E3,2.017E3,9.998518E-1,-1.159346E-1,1.5855938E-1,-7.086267E-1,2.014E3,-7.0558363E-1,-7.4410397E-1,1.1374406E2,2.019E3,-1.2874818E-1,-4.0328743E1,-3.0491766E1,2.015E3,9.998518E-1,2.013E3,-6.152846E-1,1.4E1,2.5E1,-4.0148798E-1,2.021E3,4.4014202E1,2.02E3,4.8119488E1,2.021E3,-3.3030533E1,-9.9552137E-1,2.015E3,2.015E3,-6.8802424E-2,-2.7019743E1,2.015E3,2.015E3,-2.1883116E1,1.5E1,7E0,-5.5958927E-1,5E0,2.019E3,5.5601746E-1,6.51899E-1,1.3E1,2.2E1,2.02E3,2.5E1,-3.5300663E1,-2.8527649E1,-2.8415323E1,-2.4880716E1,-7.2836547E0,5.201898E0,-3.3689236E1,-2.0409788E1,-3.1553772E1,-2.152011E1,-1.7738409E1,-2.3062292E1,-4.525818E0,-1.0840393E0,1.7112684E1,3.3976547E1,8.174979E0,2.0889137E1,1.9160782E1,3.1423313E1,9.444783E0,1.9752216E1,2.9229603E1,1.5813802E1,2.9645811E1,4.4411495E1,1.1667339E1,3.8317657E1,4.0209713E1,1.5144538E1,3.618426E1,7.2160325E0,-8.64054E0,6.1380726E1],"split_indices":[0,1,1,0,0,5,5,5,5,0,4,5,0,0,4,0,0,0,5,0,4,2,2,4,0,0,0,0,0,0,5,0,0,4,0,0,0,0,2,2,4,2,0,5,5,2,2,0,2,0,0,0,0,0,0,0,0,0,0,0,0,0,0,0,0,0,0,0,0,0,0,0,0,0,0,0,0,0,0,0,0,0,0],"split_type":[0,0,0,0,0,0,0,0,0,0,0,0,0,0,0,0,0,0,0,0,0,0,0,0,0,0,0,0,0,0,0,0,0,0,0,0,0,0,0,0,0,0,0,0,0,0,0,0,0,0,0,0,0,0,0,0,0,0,0,0,0,0,0,0,0,0,0,0,0,0,0,0,0,0,0,0,0,0,0,0,0,0,0],"sum_hessian":[3.624E3,1.973E3,1.651E3,1.607E3,3.66E2,1.163E3,4.88E2,8.6E1,1.521E3,3.05E2,6.1E1,1.158E3,5E0,9.1E1,3.97E2,6.3E1,2.3E1,4.5E2,1.071E3,1.22E2,1.83E2,1.5E1,4.6E1,3.86E2,7.72E2,2.3E1,6.8E1,3.64E2,3.3E1,1.8E2,2.7E2,1.066E3,5E0,6.1E1,6.1E1,6.5E1,1.18E2,1.3E1,2E0,3.3E1,1.3E1,7.2E1,3.14E2,4.75E2,2.97E2,2.3E1,4.5E1,2.5E1,8E0,3E1,2.4E2,4.26E2,6.4E2,2E0,3E0,5.5E1,6E0,2.2E1,4.3E1,3.9E1,7.9E1,1E0,1E0,6E0,2.7E1,2E0,1.1E1,1.6E1,5.6E1,6.6E1,2.48E2,3.07E2,1.68E2,1.99E2,9.8E1,1.2E1,1.1E1,4.2E1,3E0,1.6E1,9E0,1E0,7E0],"tree_param":{"num_deleted":"0","num_feature":"6","num_nodes":"83","size_leaf_vector":"1"}},{"base_weights":[7.8405E-1,-2.3838255E2,2.8656738E2,-2.5905786E2,-1.847864E2,2.3494574E2,4.0885992E2,-3.6942352E1,-2.5434715E2,-2.3029385E2,4.278053E1,2.3056161E2,1.0426538E2,3.3749753E2,4.2346448E2,-2.7855646E2,-2.4216315E2,-2.958922E2,-2.1313684E2,-1.748618E2,2.5951263E2,1.785309E2,2.5631238E2,3.4653494E2,2.038065E2,4.3531366E2,3.3133984E2,-2.9745728E2,-2.6490475E2,-2.4347821E2,-1.9120077E0,-3.0566542E1,-2.1891024E1,-2.2309128E1,-1.8119583E2,-1.8432742E2,-5.8485007E0,2.908049E2,1.8070856E2,2.616759E2,1.586956E2,3.6298547E2,2.367335E2,3.7784935E1,2.86777E2,2.7367654E2,-3.8690593E0,4.0580273E2,4.6236517E2,2.9626315E2,4.5821545E2,-2.0837965E1,-3.014479E1,-3.188447E1,-2.5686722E1,-2.5999756E1,-2.3203108E1,3.5925121E0,-9.554883E0,-1.7197636E1,-2.6989578E1,-1.9071932E1,-3.5529096E0,2.2060535E1,4.231834E1,-2.8894531E1,2.3128183E1,1.7357416E1,2.8336105E1,8.514398E0,1.7784927E1,4.4010403E1,3.4275616E1,1.9442284E1,2.9921894E1,3.296298E1,1.8788658E1,3.6843586E1,5.6105266E0,8.464953E0,-9.045313E0,3.7736794E1,4.448403E1,3.7146095E1,4.813812E1,3.2109528E1,-3.609268E1,1.4288159E1,5.2789917E1],"categories":[],"categories_nodes":[],"categories_segments":[],"categories_sizes":[],"default_left":[0,0,0,0,0,0,0,0,0,0,0,0,0,0,0,0,0,0,0,0,0,0,0,0,0,0,0,0,0,0,0,0,0,0,0,0,0,0,0,0,0,0,0,0,0,0,0,0,0,0,0,0,0,0,0,0,0,0,0,0,0,0,0,0,0,0,0,0,0,0,0,0,0,0,0,0,0,0,0,0,0,0,0,0,0,0,0,0,0],"id":10,"left_children":[1,3,5,7,9,11,13,-1,15,17,19,21,-1,23,25,27,29,31,33,35,37,39,41,43,45,47,49,51,53,55,57,-1,-1,-1,59,61,-1,63,65,67,69,71,73,-1,75,77,79,81,83,85,87,-1,-1,-1,-1,-1,-1,-1,-1,-1,-1,-1,-1,-1,-1,-1,-1,-1,-1,-1,-1,-1,-1,-1,-1,-1,-1,-1,-1,-1,-1,-1,-1,-1,-1,-1,-1,-1,-1],"loss_changes":[2.4783646E8,2.13956E6,1.0332928E7,6.45328E5,5.736714E6,3.881428E6,3.6672E5,0E0,3.35768E5,4.55776E5,4.432196E6,1.5071E6,0E0,3.5697E4,2.94592E5,3.7572E4,2.89256E5,3.056E3,7.6903E4,4.099375E4,6.3349E4,5.96715E5,1.528512E6,4.3216E4,1.1714128E5,9.4172E4,8.67665E4,1.525E3,3.5588E4,1.12128E5,2.4690293E4,0E0,0E0,0E0,2.96365E4,3.41215E4,0E0,2.040165E5,4.4685872E5,9.0283E4,4.28625E5,3.3238E4,1.676156E6,0E0,7.36745E4,1.0303022E5,3.0649715E4,2.8608E4,1.27152E5,8.0130775E5,1.2233575E5,0E0,0E0,0E0,0E0,0E0,0E0,0E0,0E0,0E0,0E0,0E0,0E0,0E0,0E0,0E0,0E0,0E0,0E0,0E0,0E0,0E0,0E0,0E0,0E0,0E0,0E0,0E0,0E0,0E0,0E0,0E0,0E0,0E0,0E0,0E0,0E0,0E0,0E0],"parents":[2147483647,0,0,1,1,2,2,3,3,4,4,5,5,6,6,8,8,9,9,10,10,11,11,13,13,14,14,15,15,16,16,17,17,18,18,19,19,20,20,21,21,22,22,23,23,24,24,25,25,26,26,27,27,28,28,29,29,30,30,34,34,35,35,37,37,38,38,39,39,40,40,41,41,42,42,44,44,45,45,46,46,47,47,48,48,49,49,50,50],"right_children":[2,4,6,8,10,12,14,-1,16,18,20,22,-1,24,26,28,30,32,34,36,38,40,42,44,46,48,50,52,54,56,58,-1,-1,-1,60,62,-1,64,66,68,70,72,74,-1,76,78,80,82,84,86,88,-1,-1,-1,-1,-1,-1,-1,-1,-1,-1,-1,-1,-1,-1,-1,-1,-1,-1,-1,-1,-1,-1,-1,-1,-1,-1,-1,-1,-1,-1,-1,-1,-1,-1,-1,-1,-1,-1],"split_conditions":[2.018E3,1E1,9E0,2.013E3,2.017E3,9.998518E-1,-1.3301471E-1,-3.6942352E1,-7.086267E-1,2.013E3,-7.0558363E-1,-7.4410397E-1,1.0426538E2,2.1E1,-1.9667289E-1,2.015E3,9.998518E-1,-1.9667289E-1,2.016E3,2.8E1,-2.4702218E-1,-4.0148798E-1,1.7129314E-1,-9.275417E-1,2.021E3,2.02E3,3E1,-6.354323E-1,-9.9552137E-1,2.015E3,2.017E3,-3.0566542E1,-2.1891024E1,-2.2309128E1,-6.8802424E-2,-7.23644E-1,-5.8485007E0,-3.8566342E-1,1.8E1,5E0,2.019E3,6E0,2.021E3,3.7784935E1,6E0,-9.8594815E-1,2.2E1,-7.0558363E-1,-9.8867756E-1,-2.5818441E-2,2.019E3,-2.0837965E1,-3.014479E1,-3.188447E1,-2.5686722E1,-2.5999756E1,-2.3203108E1,3.5925121E0,-9.554883E0,-1.7197636E1,-2.6989578E1,-1.9071932E1,-3.5529096E0,2.2060535E1,4.231834E1,-2.8894531E1,2.3128183E1,1.7357416E1,2.8336105E1,8.514398E0,1.7784927E1,4.4010403E1,3.4275616E1,1.9442284E1,2.9921894E1,3.296298E1,1.8788658E1,3.6843586E1,5.6105266E0,8.464953E0,-9.045313E0,3.7736794E1,4.448403E1,3.7146095E1,4.813812E1,3.2109528E1,-3.609268E1,1.4288159E1,5.2789917E1],"split_indices":[0,1,1,0,0,5,5,0,5,0,4,5,0,2,4,0,5,4,0,2,4,4,4,4,0,0,2,4,5,0,0,0,0,0,4,4,0,4,2,2,0,2,0,0,2,4,2,4,4,4,0,0,0,0,0,0,0,0,0,0,0,0,0,0,0,0,0,0,0,0,0,0,0,0,0,0,0,0,0,0,0,0,0,0,0,0,0,0,0],"split_type":[0,0,0,0,0,0,0,0,0,0,0,0,0,0,0,0,0,0,0,0,0,0,0,0,0,0,0,0,0,0,0,0,0,0,0,0,0,0,0,0,0,0,0,0,0,0,0,0,0,0,0,0,0,0,0,0,0,0,0,0,0,0,0,0,0,0,0,0,0,0,0,0,0,0,0,0,0,0,0,0,0,0,0,0,0,0,0,0,0],"sum_hessian":[3.624E3,1.973E3,1.651E3,1.421E3,5.52E2,1.163E3,4.88E2,5.5E1,1.366E3,4.6E2,9.2E1,1.158E3,5E0,8.7E1,4.01E2,4.5E2,9.16E2,9.2E1,3.68E2,4.6E1,4.6E1,3.86E2,7.72E2,8E1,7E0,3.52E2,4.9E1,1.8E2,2.7E2,9.11E2,5E0,7.9E1,1.3E1,2.76E2,9.2E1,4.2E1,4E0,3.1E1,1.5E1,7.2E1,3.14E2,1.17E2,6.55E2,4.9E1,3.1E1,5E0,2E0,1.76E2,1.76E2,4.1E1,8E0,1E1,1.7E2,3E1,2.4E2,3.64E2,5.47E2,4E0,1E0,8.6E1,6E0,4E1,2E0,2.2E1,9E0,1E0,1.4E1,1.6E1,5.6E1,6.6E1,2.48E2,2E1,9.7E1,3.93E2,2.62E2,2E1,1.1E1,3E0,2E0,1E0,1E0,1.08E2,6.8E1,3.4E1,1.42E2,4E1,1E0,2E0,6E0],"tree_param":{"num_deleted":"0","num_feature":"6","num_nodes":"89","size_leaf_vector":"1"}},{"base_weights":[8.094936E-1,-2.1469093E2,2.5831375E2,-2.3329318E2,-1.6646835E2,2.031203E2,3.5153217E2,-3.3314087E1,-2.290322E2,-2.075225E2,3.882656E1,1.9856088E2,9.55766E1,2.926848E2,3.8169162E2,-2.5094151E2,-2.1800697E2,-2.6686703E2,-1.9200336E2,-1.579814E2,2.3480843E2,1.4887337E2,2.4027748E2,3.0279196E2,1.4994766E2,3.9017404E2,2.784061E2,-2.3288946E1,-2.6319056E1,-2.1918433E2,-2.7145386E0,-2.690661E1,-1.1120673E1,-2.0086267E1,-1.6355138E2,-1.6781496E2,-6.2816296E0,2.6373624E2,1.6227731E2,1.0785643E2,1.7780296E2,2.0060545E2,2.9862946E2,3.671235E1,2.7901248E2,-1.14918236E2,2.4781282E1,3.5443106E2,4.0437164E2,2.095162E2,4.4648734E2,-2.3406904E1,-2.088703E1,-7.037577E0,4.871002E0,-1.5497638E1,-2.4676188E1,-9.683612E0,-1.8423841E1,1.9950396E1,3.8509686E1,-2.7449804E1,2.0969553E1,1.1689135E1,-1.566572E1,9.911716E0,1.9263807E1,1.202928E1,2.7973112E1,2.2953283E1,3.8425213E1,2.4917461E1,3.3251118E1,5.6994834E0,-2.4852522E1,2.7271198E1,3.781419E1,4.2472538E1,3.377157E1,2.9722982E1,3.945144E0,-9.81399E0,5.2683327E1],"categories":[],"categories_nodes":[],"categories_segments":[],"categories_sizes":[],"default_left":[0,0,0,0,0,0,0,0,0,0,0,0,0,0,0,0,0,0,0,0,0,0,0,0,0,0,0,0,0,0,0,0,0,0,0,0,0,0,0,0,0,0,0,0,0,0,0,0,0,0,0,0,0,0,0,0,0,0,0,0,0,0,0,0,0,0,0,0,0,0,0,0,0,0,0,0,0,0,0,0,0,0,0],"id":11,"left_children":[1,3,5,7,9,11,13,-1,15,17,19,21,-1,23,25,27,29,31,33,35,37,39,41,43,45,47,49,-1,-1,51,53,-1,-1,-1,55,57,-1,59,61,63,65,67,69,-1,71,73,-1,75,77,79,81,-1,-1,-1,-1,-1,-1,-1,-1,-1,-1,-1,-1,-1,-1,-1,-1,-1,-1,-1,-1,-1,-1,-1,-1,-1,-1,-1,-1,-1,-1,-1,-1],"loss_changes":[2.0121498E8,1.731928E6,8.428208E6,5.28688E5,4.668856E6,3.379112E6,9.7624E5,0E0,2.75496E5,3.73332E5,3.6241792E6,2.109572E6,0E0,2.60442E5,2.43572E5,3.8432E4,2.31844E5,1.9125E3,6.016E4,3.344175E4,5.581525E4,5.44459E5,1.238776E6,1.98932E5,4.432165E5,4.3932E4,3.0014325E5,0E0,0E0,9.112E4,2.4304701E4,0E0,0E0,0E0,2.811625E4,3.1119125E4,0E0,1.7262025E5,3.8893884E5,4.938935E5,3.04252E5,2.107916E6,1.242956E6,0E0,1.53397E5,1.290086E5,0E0,1.15828E5,2.0524E5,3.7611575E5,4.455305E5,0E0,0E0,0E0,0E0,0E0,0E0,0E0,0E0,0E0,0E0,0E0,0E0,0E0,0E0,0E0,0E0,0E0,0E0,0E0,0E0,0E0,0E0,0E0,0E0,0E0,0E0,0E0,0E0,0E0,0E0,0E0,0E0],"parents":[2147483647,0,0,1,1,2,2,3,3,4,4,5,5,6,6,8,8,9,9,10,10,11,11,13,13,14,14,15,15,16,16,17,17,18,18,19,19,20,20,21,21,22,22,23,23,24,24,25,25,26,26,29,29,30,30,34,34,35,35,37,37,38,38,39,39,40,40,41,41,42,42,44,44,45,45,47,47,48,48,49,49,50,50],"right_children":[2,4,6,8,10,12,14,-1,16,18,20,22,-1,24,26,28,30,32,34,36,38,40,42,44,46,48,50,-1,-1,52,54,-1,-1,-1,56,58,-1,60,62,64,66,68,70,-1,72,74,-1,76,78,80,82,-1,-1,-1,-1,-1,-1,-1,-1,-1,-1,-1,-1,-1,-1,-1,-1,-1,-1,-1,-1,-1,-1,-1,-1,-1,-1,-1,-1,-1,-1,-1,-1],"split_conditions":[2.018E3,1E1,8E0,2.013E3,2.017E3,9.998518E-1,-1.3301471E-1,-3.3314087E1,-7.086267E-1,2.013E3,-7.0558363E-1,-3.6572254E-1,9.55766E1,-5.4524046E-1,-1.2874818E-1,-1.2020805E-1,9.998518E-1,-8.606997E-3,2.016E3,2.7E1,-2.4702218E-1,2.02E3,2.021E3,2.019E3,2.019E3,-9.427611E-1,2.021E3,-2.3288946E1,-2.6319056E1,2.015E3,2.015E3,-2.690661E1,-1.1120673E1,-2.0086267E1,-6.8802424E-2,-9.8867756E-1,-6.2816296E0,-3.8566342E-1,1.8E1,9.0701383E-1,6E0,8.3592546E-1,1.7E1,3.671235E1,2.021E3,3E0,2.4781282E1,8E0,2.021E3,2.02E3,2.5E1,-2.3406904E1,-2.088703E1,-7.037577E0,4.871002E0,-1.5497638E1,-2.4676188E1,-9.683612E0,-1.8423841E1,1.9950396E1,3.8509686E1,-2.7449804E1,2.0969553E1,1.1689135E1,-1.566572E1,9.911716E0,1.9263807E1,1.202928E1,2.7973112E1,2.2953283E1,3.8425213E1,2.4917461E1,3.3251118E1,5.6994834E0,-2.4852522E1,2.7271198E1,3.781419E1,4.2472538E1,3.377157E1,2.9722982E1,3.945144E0,-9.81399E0,5.2683327E1],"split_indices":[0,1,1,0,0,5,5,0,5,0,4,5,0,4,4,4,5,4,0,2,4,0,0,0,0,4,0,0,0,0,0,0,0,0,4,4,0,4,2,4,2,4,2,0,0,2,0,2,0,0,2,0,0,0,0,0,0,0,0,0,0,0,0,0,0,0,0,0,0,0,0,0,0,0,0,0,0,0,0,0,0,0,0],"split_type":[0,0,0,0,0,0,0,0,0,0,0,0,0,0,0,0,0,0,0,0,0,0,0,0,0,0,0,0,0,0,0,0,0,0,0,0,0,0,0,0,0,0,0,0,0,0,0,0,0,0,0,0,0,0,0,0,0,0,0,0,0,0,0,0,0,0,0,0,0,0,0,0,0,0,0,0,0,0,0,0,0,0,0],"sum_hessian":[3.624E3,1.973E3,1.651E3,1.421E3,5.52E2,1.039E3,6.12E2,5.5E1,1.366E3,4.6E2,9.2E1,1.034E3,5E0,2.11E2,4.01E2,4.5E2,9.16E2,9.2E1,3.68E2,4.6E1,4.6E1,4.74E2,5.6E2,1.96E2,1.5E1,3.68E2,3.3E1,1.9E2,2.6E2,9.11E2,5E0,9E1,2E0,2.76E2,9.2E1,4.1E1,5E0,3.1E1,1.5E1,1.98E2,2.76E2,3.36E2,2.24E2,4.9E1,1.47E2,4E0,1.1E1,1.12E2,2.56E2,2.5E1,8E0,3.64E2,5.47E2,2E0,3E0,8.6E1,6E0,9E0,3.2E1,2.2E1,9E0,1E0,1.4E1,1.92E2,6E0,4.5E1,2.31E2,1.68E2,1.68E2,1.26E2,9.8E1,9.8E1,4.9E1,2E0,2E0,2.8E1,8.4E1,1.92E2,6.4E1,1.6E1,9E0,1E0,7E0],"tree_param":{"num_deleted":"0","num_feature":"6","num_nodes":"83","size_leaf_vector":"1"}},{"base_weights":[8.196961E-1,-1.9332828E2,2.3280957E2,-2.1005486E2,-1.4996747E2,1.9075342E2,3.324426E2,-3.004217E1,-2.0619926E2,-1.8698347E2,3.513303E1,1.8704077E2,8.761188E1,2.3054556E2,3.388362E2,-2.2595737E2,-1.9625694E2,-2.4058923E2,-1.7296635E2,-1.4291496E2,2.1243352E2,1.5333598E2,2.1519691E2,2.6971298E1,1.4279045E2,3.4406628E2,2.387031E2,-2.4309193E2,-2.1367947E2,-1.9731447E2,-2.8041584E0,-2.4891066E1,-1.7585325E1,-1.8702388E2,-1.5797386E2,-1.517027E2,-5.7581615E0,2.250784E2,8.851371E1,2.4164442E2,1.2231928E2,1.8143942E2,2.6564752E2,2.4874922E1,7.983206E1,3.117929E2,3.61839E2,1.314892E2,5.1092815E1,-1.682643E1,-2.4648382E1,-1.8603346E1,-2.263983E1,-1.8469969E1,-2.0729446E1,3.391775E0,-9.320685E0,-1.9785648E1,-1.6053635E1,-1.5033034E1,-2.077723E1,-1.5772199E1,-2.087797E0,1.7650194E1,2.6525E1,1.8575287E0,1.5226038E1,1.419904E1,2.5364836E1,1.2656097E1,-1.7377731E1,2.3886045E1,1.0833468E1,3.4459194E1,2.0982216E1,-5.8163514E0,1.5852376E1,2.4638113E1,3.237113E1,3.8018745E1,3.0208143E1,2.3682892E1,-5.6124024E0],"categories":[],"categories_nodes":[],"categories_segments":[],"categories_sizes":[],"default_left":[0,0,0,0,0,0,0,0,0,0,0,0,0,0,0,0,0,0,0,0,0,0,0,0,0,0,0,0,0,0,0,0,0,0,0,0,0,0,0,0,0,0,0,0,0,0,0,0,0,0,0,0,0,0,0,0,0,0,0,0,0,0,0,0,0,0,0,0,0,0,0,0,0,0,0,0,0,0,0,0,0,0,0],"id":12,"left_children":[1,3,5,7,9,11,13,-1,15,17,19,21,-1,23,25,27,29,31,33,35,37,39,41,-1,43,45,47,49,51,53,55,-1,-1,57,59,61,-1,63,65,67,69,71,73,-1,75,77,79,81,-1,-1,-1,-1,-1,-1,-1,-1,-1,-1,-1,-1,-1,-1,-1,-1,-1,-1,-1,-1,-1,-1,-1,-1,-1,-1,-1,-1,-1,-1,-1,-1,-1,-1,-1],"loss_changes":[1.6331632E8,1.400192E6,6.858768E6,4.33508E5,3.79555E6,2.79794E6,2.40464E5,0E0,2.24188E5,3.0478E5,2.9661832E6,1.066892E6,0E0,7.1476125E4,1.57728E5,4.2936E4,1.87048E5,6.327E3,4.8225E4,2.6509438E4,5.372425E4,1.42487E6,1.023042E6,0E0,6.0193766E4,1.3554E5,6.916625E5,4.465E3,5.3173E4,7.6532E4,2.3079922E4,0E0,0E0,2.13185E4,3.9183E4,2.9780875E4,0E0,3.51415E4,2.3921766E4,1.278685E5,5.180945E5,1.569268E6,1.029474E6,0E0,1.06952266E5,4.576E4,1.84488E5,4.0855434E5,0E0,0E0,0E0,0E0,0E0,0E0,0E0,0E0,0E0,0E0,0E0,0E0,0E0,0E0,0E0,0E0,0E0,0E0,0E0,0E0,0E0,0E0,0E0,0E0,0E0,0E0,0E0,0E0,0E0,0E0,0E0,0E0,0E0,0E0,0E0],"parents":[2147483647,0,0,1,1,2,2,3,3,4,4,5,5,6,6,8,8,9,9,10,10,11,11,13,13,14,14,15,15,16,16,17,17,18,18,19,19,20,20,21,21,22,22,24,24,25,25,26,26,27,27,28,28,29,29,30,30,33,33,34,34,35,35,37,37,38,38,39,39,40,40,41,41,42,42,44,44,45,45,46,46,47,47],"right_children":[2,4,6,8,10,12,14,-1,16,18,20,22,-1,24,26,28,30,32,34,36,38,40,42,-1,44,46,48,50,52,54,56,-1,-1,58,60,62,-1,64,66,68,70,72,74,-1,76,78,80,82,-1,-1,-1,-1,-1,-1,-1,-1,-1,-1,-1,-1,-1,-1,-1,-1,-1,-1,-1,-1,-1,-1,-1,-1,-1,-1,-1,-1,-1,-1,-1,-1,-1,-1,-1],"split_conditions":[2.018E3,1E1,9E0,2.013E3,2.017E3,9.998518E-1,-3.6572254E-1,-3.004217E1,-7.086267E-1,2.013E3,-7.0558363E-1,-5.3437257E-1,8.761188E1,6E0,-9.453675E-2,2.015E3,9.998518E-1,-1.9667289E-1,2.015E3,2.7E1,-6.8802424E-2,-4.0148798E-1,2.021E3,2.6971298E1,2.019E3,-9.3985605E-1,2.021E3,-6.354323E-1,2.016E3,6.016241E-1,2.017E3,-2.4891066E1,-1.7585325E1,2.2E1,-1.5430883E-1,-7.23644E-1,-5.7581615E0,-4.0935597E-1,3E1,5E0,8.311706E-1,5.5601746E-1,7.638886E-1,2.4874922E1,2.02E3,8E0,2.021E3,2.02E3,5.1092815E1,-1.682643E1,-2.4648382E1,-1.8603346E1,-2.263983E1,-1.8469969E1,-2.0729446E1,3.391775E0,-9.320685E0,-1.9785648E1,-1.6053635E1,-1.5033034E1,-2.077723E1,-1.5772199E1,-2.087797E0,1.7650194E1,2.6525E1,1.8575287E0,1.5226038E1,1.419904E1,2.5364836E1,1.2656097E1,-1.7377731E1,2.3886045E1,1.0833468E1,3.4459194E1,2.0982216E1,-5.8163514E0,1.5852376E1,2.4638113E1,3.237113E1,3.8018745E1,3.0208143E1,2.3682892E1,-5.6124024E0],"split_indices":[0,1,1,0,0,5,5,0,5,0,4,5,0,2,4,0,5,4,0,2,4,4,0,0,0,4,0,4,0,4,0,0,0,2,4,4,0,4,2,2,4,5,4,0,0,2,0,0,0,0,0,0,0,0,0,0,0,0,0,0,0,0,0,0,0,0,0,0,0,0,0,0,0,0,0,0,0,0,0,0,0,0,0],"split_type":[0,0,0,0,0,0,0,0,0,0,0,0,0,0,0,0,0,0,0,0,0,0,0,0,0,0,0,0,0,0,0,0,0,0,0,0,0,0,0,0,0,0,0,0,0,0,0,0,0,0,0,0,0,0,0,0,0,0,0,0,0,0,0,0,0,0,0,0,0,0,0,0,0,0,0,0,0,0,0,0,0,0,0],"sum_hessian":[3.624E3,1.973E3,1.651E3,1.421E3,5.52E2,1.163E3,4.88E2,5.5E1,1.366E3,4.6E2,9.2E1,1.158E3,5E0,3.1E1,4.57E2,4.5E2,9.16E2,9.2E1,3.68E2,4.6E1,4.6E1,5.3E2,6.28E2,2E1,1.1E1,4.32E2,2.5E1,1.8E2,2.7E2,9.11E2,5E0,7.9E1,1.3E1,1.84E2,1.84E2,4.1E1,5E0,4.1E1,5E0,1.36E2,3.94E2,3.79E2,2.49E2,3E0,8E0,1.6E2,2.72E2,1.9E1,6E0,1E1,1.7E2,9E1,1.8E2,4.11E2,5E2,4E0,1E0,1.26E2,5.8E1,1.63E2,2.1E1,3.9E1,2E0,2.1E1,2E1,3E0,2E0,1.6E1,1.2E2,3.89E2,5E0,2.11E2,1.68E2,1.01E2,1.48E2,3E0,5E0,2.8E1,1.32E2,2.04E2,6.8E1,1.2E1,7E0],"tree_param":{"num_deleted":"0","num_feature":"6","num_nodes":"83","size_leaf_vector":"1"}},{"base_weights":[8.0241406E-1,-1.7411418E2,2.0981244E2,-1.891604E2,-1.3510904E2,1.6474112E2,2.8593698E2,-2.7091597E1,-1.8567287E2,-1.685327E2,3.202448E1,1.5653575E2,4.7872983E2,2.3795981E2,3.105271E2,-1.9697127E2,-1.7077045E2,-2.1698706E2,-1.5586389E2,-1.2598015E2,1.9620268E2,1.3242564E2,2.1068718E2,3.528828E2,8.3940605E1,2.461705E2,1.21993034E2,3.1951944E2,2.4083069E2,-1.7714449E2,-2.0760678E2,-1.7217719E2,-3.511861E0,-2.2433075E1,-1.5952402E1,-1.6328728E2,-1.3207744E2,-1.3356583E2,-9.146301E0,2.2568666E2,1.2681483E2,7.66014E1,1.7125078E2,2.1986563E2,1.2069255E2,5.128958E1,2.8506235E2,3.040576E2,2.2495074E2,-1.1861629E2,2.1208082E1,2.903565E2,3.468772E2,2.0668459E2,3.7342017E2,-1.9655066E1,-1.6310095E1,-2.2031992E1,-1.9842049E1,-1.7819838E1,-1.3255506E1,-6.794519E0,4.5691104E0,-1.723074E1,-1.5076804E1,-1.2446654E1,-2.078018E1,-1.4120952E1,-4.4174366E0,-3.0963013E0,8.446941E-1,2.6636408E1,9.665695E0,-2.7403564E1,1.7180723E1,3.1876314E0,1.4677123E1,1.2252817E1,2.7030287E1,1.2809613E1,2.4213673E1,3.5470787E1,5.0340567E0,2.2127867E1,3.9388752E1,1.5344211E1,3.1040663E1,1.9838255E1,2.7305674E1,4.372913E0,-2.4142294E1,1.5317497E1,2.9427414E1,3.701978E1,2.85331E1,2.5216684E1,-1.0823672E1,9.77522E0,4.3821785E1],"categories":[],"categories_nodes":[],"categories_segments":[],"categories_sizes":[],"default_left":[0,0,0,0,0,0,0,0,0,0,0,0,0,0,0,0,0,0,0,0,0,0,0,0,0,0,0,0,0,0,0,0,0,0,0,0,0,0,0,0,0,0,0,0,0,0,0,0,0,0,0,0,0,0,0,0,0,0,0,0,0,0,0,0,0,0,0,0,0,0,0,0,0,0,0,0,0,0,0,0,0,0,0,0,0,0,0,0,0,0,0,0,0,0,0,0,0,0,0],"id":13,"left_children":[1,3,5,7,9,11,13,-1,15,17,19,21,23,25,27,29,31,33,35,37,39,41,43,45,-1,47,49,51,53,55,57,59,61,-1,-1,63,65,67,69,71,73,75,77,79,81,-1,83,85,87,89,-1,91,93,95,97,-1,-1,-1,-1,-1,-1,-1,-1,-1,-1,-1,-1,-1,-1,-1,-1,-1,-1,-1,-1,-1,-1,-1,-1,-1,-1,-1,-1,-1,-1,-1,-1,-1,-1,-1,-1,-1,-1,-1,-1,-1,-1,-1,-1],"loss_changes":[1.3256407E8,1.132944E6,5.62096E6,3.55144E5,3.094574E6,2.60451E6,6.49304E5,0E0,1.96532E5,2.49169E5,2.437223E6,1.297282E6,8.839285E5,1.71829E5,1.75E5,1.25802E5,1.39862E5,3.459E3,4.359E4,4.1318938E4,6.548775E4,1.514888E6,2.30353E5,8.1688E4,0E0,1.73587E5,3.7197162E5,1.80916E5,1.491905E5,4.3161E4,1.421E4,1.17614E5,2.2126357E4,0E0,0E0,5.302E3,2.7734375E4,2.4509875E4,1.7968495E3,1.369605E5,3.35645E5,9.085819E5,1.969701E6,5.43293E5,4.925105E5,0E0,3.084275E4,1.84E2,1.349875E5,1.102427E5,0E0,5.0048E4,1.48418E5,6.288734E5,1.17927125E5,0E0,0E0,0E0,0E0,0E0,0E0,0E0,0E0,0E0,0E0,0E0,0E0,0E0,0E0,0E0,0E0,0E0,0E0,0E0,0E0,0E0,0E0,0E0,0E0,0E0,0E0,0E0,0E0,0E0,0E0,0E0,0E0,0E0,0E0,0E0,0E0,0E0,0E0,0E0,0E0,0E0,0E0,0E0,0E0],"parents":[2147483647,0,0,1,1,2,2,3,3,4,4,5,5,6,6,8,8,9,9,10,10,11,11,12,12,13,13,14,14,15,15,16,16,17,17,18,18,19,19,20,20,21,21,22,22,23,23,25,25,26,26,27,27,28,28,29,29,30,30,31,31,32,32,35,35,36,36,37,37,38,38,39,39,40,40,41,41,42,42,43,43,44,44,46,46,47,47,48,48,49,49,51,51,52,52,53,53,54,54],"right_children":[2,4,6,8,10,12,14,-1,16,18,20,22,24,26,28,30,32,34,36,38,40,42,44,46,-1,48,50,52,54,56,58,60,62,-1,-1,64,66,68,70,72,74,76,78,80,82,-1,84,86,88,90,-1,92,94,96,98,-1,-1,-1,-1,-1,-1,-1,-1,-1,-1,-1,-1,-1,-1,-1,-1,-1,-1,-1,-1,-1,-1,-1,-1,-1,-1,-1,-1,-1,-1,-1,-1,-1,-1,-1,-1,-1,-1,-1,-1,-1,-1,-1,-1],"split_conditions":[2.018E3,1E1,8E0,2.013E3,2.017E3,9.962982E-1,-1.3301471E-1,-2.7091597E1,-2.344914E-1,2.013E3,-6.870528E-1,8.6314213E-1,2.022E3,-5.4524046E-1,-1.9667289E-1,-3.6171374E-1,9.998518E-1,-1.9667289E-1,2.016E3,-7.23644E-1,-2.4702218E-1,2.02E3,9.9887973E-1,2E0,8.3940605E1,2.019E3,2.019E3,2.02E3,3E1,2.015E3,2.015E3,2.7E1,2.015E3,-2.2433075E1,-1.5952402E1,1.8E1,-6.8802424E-2,2.8E1,1.5E1,2.3E1,1.8E1,2E1,6.51899E-1,2.019E3,2.019E3,5.128958E1,5E0,-9.813065E-1,2.021E3,3E0,2.1208082E1,2E0,-5.947267E-1,-4.3022234E-2,2.019E3,-1.9655066E1,-1.6310095E1,-2.2031992E1,-1.9842049E1,-1.7819838E1,-1.3255506E1,-6.794519E0,4.5691104E0,-1.723074E1,-1.5076804E1,-1.2446654E1,-2.078018E1,-1.4120952E1,-4.4174366E0,-3.0963013E0,8.446941E-1,2.6636408E1,9.665695E0,-2.7403564E1,1.7180723E1,3.1876314E0,1.4677123E1,1.2252817E1,2.7030287E1,1.2809613E1,2.4213673E1,3.5470787E1,5.0340567E0,2.2127867E1,3.9388752E1,1.5344211E1,3.1040663E1,1.9838255E1,2.7305674E1,4.372913E0,-2.4142294E1,1.5317497E1,2.9427414E1,3.701978E1,2.85331E1,2.5216684E1,-1.0823672E1,9.77522E0,4.3821785E1],"split_indices":[0,1,1,0,0,5,5,0,5,0,4,4,0,4,4,4,5,4,0,4,4,0,4,2,0,0,0,0,2,0,0,2,0,0,0,2,4,2,2,2,2,2,5,0,0,0,2,4,0,2,0,2,4,4,0,0,0,0,0,0,0,0,0,0,0,0,0,0,0,0,0,0,0,0,0,0,0,0,0,0,0,0,0,0,0,0,0,0,0,0,0,0,0,0,0,0,0,0,0],"split_type":[0,0,0,0,0,0,0,0,0,0,0,0,0,0,0,0,0,0,0,0,0,0,0,0,0,0,0,0,0,0,0,0,0,0,0,0,0,0,0,0,0,0,0,0,0,0,0,0,0,0,0,0,0,0,0,0,0,0,0,0,0,0,0,0,0,0,0,0,0,0,0,0,0,0,0,0,0,0,0,0,0,0,0,0,0,0,0,0,0,0,0,0,0,0,0,0,0,0,0],"sum_hessian":[3.624E3,1.973E3,1.651E3,1.421E3,5.52E2,1.039E3,6.12E2,5.5E1,1.366E3,4.6E2,9.2E1,1.014E3,2.5E1,2.11E2,4.01E2,7.7E2,5.96E2,9.2E1,3.68E2,4.7E1,4.5E1,7.04E2,3.1E2,2E1,5E0,1.96E2,1.5E1,3.52E2,4.9E1,2.75E2,4.95E2,5.91E2,5E0,7.9E1,1.3E1,2.76E2,9.2E1,4.4E1,3E0,3E1,1.5E1,2.9E2,4.14E2,2.8E2,3E1,4E0,1.6E1,4.9E1,1.47E2,4E0,1.1E1,1.76E2,1.76E2,4.1E1,8E0,1.1E2,1.65E2,1.98E2,2.97E2,5.1E2,8.1E1,2E0,3E0,1.53E2,1.23E2,8.6E1,6E0,4E1,4E0,1E0,2E0,2.2E1,8E0,1E0,1.4E1,1.78E2,1.12E2,2.79E2,1.35E2,5.6E1,2.24E2,6E0,2.4E1,1.2E1,4E0,3E0,4.6E1,9.8E1,4.9E1,2E0,2E0,6E0,1.7E2,1.24E2,5.2E1,3.6E1,5E0,2E0,6E0],"tree_param":{"num_deleted":"0","num_feature":"6","num_nodes":"99","size_leaf_vector":"1"}},{"base_weights":[8.236331E-1,-1.5682275E2,1.8919722E2,-1.8115108E2,-1.3720828E2,1.485857E2,2.5778903E2,-1.9862016E2,-1.6447406E2,-1.5318146E2,-5.7117535E1,1.4027867E2,4.1444064E2,2.0379591E2,2.7561685E2,-2.4430815E1,-1.9114821E2,-1.9570111E2,-1.5602065E2,-1.1936323E2,-1.6431287E2,-1.3593677E2,1.001709E2,1.2221311E2,2.0240784E2,7.549258E2,3.1992712E2,2.1300726E2,1.0988362E2,2.8197345E2,2.1810739E2,-1.7650365E2,-2.0475954E1,-1.9857906E1,-1.053337E1,-1.6447137E2,-1.3586886E1,-1.3930602E2,-1.0403627E2,-1.7132622E2,-1.2690235E2,-1.2669839E2,-1.725903E2,-1.1401632E2,1.7714941E2,7.627463E1,1.5399695E2,1.7708157E2,2.9766095E2,4.0485897E1,9.700396E1,2.7485507E2,4.2435803E2,2.718407E1,1.9101659E2,-1.1070852E2,1.9264005E2,2.5101732E2,3.0085684E2,1.863588E2,3.4203336E2,-1.9802076E1,-1.374601E1,-1.6502838E1,-6.3415484E0,-8.442761E0,-1.6502419E1,-1.1114577E1,-7.3152237E0,-1.7599714E1,-1.0456943E1,-9.0941305E0,-1.9453856E1,-1.4130977E1,-1.09316225E1,-3.880713E0,-1.7711298E1,-1.5169826E1,-3.85138E0,2.0428907E1,1.1349447E1,1.1004497E1,-1.1030463E0,1.1683829E1,2.4531666E1,2.1127947E1,9.897952E0,3.3151516E1,-4.624673E0,3.4597973E1,1.787436E1,4.892999E1,4.982446E0,1.5959729E1,2.4767641E1,4.081384E0,-2.2532804E1,2.1897984E1,1.1196838E1,1.9148766E1,2.6211014E1,2.7230076E1,3.2700607E1,2.0732534E1,-3.36635E1,9.123535E0,4.006563E1],"categories":[],"categories_nodes":[],"categories_segments":[],"categories_sizes":[],"default_left":[0,0,0,0,0,0,0,0,0,0,0,0,0,0,0,0,0,0,0,0,0,0,0,0,0,0,0,0,0,0,0,0,0,0,0,0,0,0,0,0,0,0,0,0,0,0,0,0,0,0,0,0,0,0,0,0,0,0,0,0,0,0,0,0,0,0,0,0,0,0,0,0,0,0,0,0,0,0,0,0,0,0,0,0,0,0,0,0,0,0,0,0,0,0,0,0,0,0,0,0,0,0,0,0,0,0,0],"id":14,"left_children":[1,3,5,7,9,11,13,15,17,19,21,23,25,27,29,-1,31,33,35,37,39,41,43,45,47,49,51,53,55,57,59,61,-1,-1,-1,63,-1,65,67,69,71,73,75,77,79,81,83,85,87,-1,-1,89,91,-1,93,95,97,99,101,103,105,-1,-1,-1,-1,-1,-1,-1,-1,-1,-1,-1,-1,-1,-1,-1,-1,-1,-1,-1,-1,-1,-1,-1,-1,-1,-1,-1,-1,-1,-1,-1,-1,-1,-1,-1,-1,-1,-1,-1,-1,-1,-1,-1,-1,-1,-1],"loss_changes":[1.07679176E8,9.17112E5,4.563532E6,2.2312E5,1.394646E6,2.238662E6,5.33896E5,9.8046E4,8.9575E4,3.24458E5,2.29473E6,1.108884E6,7.56073E5,1.115435E5,1.05928E5,0E0,3.7413E4,3.26975E3,3.9471E4,5.58095E4,1.57984E5,1.9783E4,1.0424424E6,1.134434E6,4.92494E5,5.9096E4,5.7425E3,1.304975E5,3.1341356E5,1.63562E5,1.3298275E5,1.28199E5,0E0,0E0,0E0,3.6635E3,0E0,1.22970625E5,2.129175E4,1.60578E5,2.5472262E5,1.045825E4,6.4380625E3,4.2523906E4,5.628275E4,9.53522E5,1.542444E6,4.62525E5,5.50897E5,0E0,0E0,8.1712125E4,1.21558375E5,0E0,1.49174E5,9.60336E4,9.7965625E2,5.6126E4,9.689E4,5.303389E5,9.57685E4,0E0,0E0,0E0,0E0,0E0,0E0,0E0,0E0,0E0,0E0,0E0,0E0,0E0,0E0,0E0,0E0,0E0,0E0,0E0,0E0,0E0,0E0,0E0,0E0,0E0,0E0,0E0,0E0,0E0,0E0,0E0,0E0,0E0,0E0,0E0,0E0,0E0,0E0,0E0,0E0,0E0,0E0,0E0,0E0,0E0,0E0],"parents":[2147483647,0,0,1,1,2,2,3,3,4,4,5,5,6,6,7,7,8,8,9,9,10,10,11,11,12,12,13,13,14,14,16,16,17,17,18,18,19,19,20,20,21,21,22,22,23,23,24,24,25,25,26,26,27,27,28,28,29,29,30,30,31,31,35,35,37,37,38,38,39,39,40,40,41,41,42,42,43,43,44,44,45,45,46,46,47,47,48,48,51,51,52,52,54,54,55,55,56,56,57,57,58,58,59,59,60,60],"right_children":[2,4,6,8,10,12,14,16,18,20,22,24,26,28,30,-1,32,34,36,38,40,42,44,46,48,50,52,54,56,58,60,62,-1,-1,-1,64,-1,66,68,70,72,74,76,78,80,82,84,86,88,-1,-1,90,92,-1,94,96,98,100,102,104,106,-1,-1,-1,-1,-1,-1,-1,-1,-1,-1,-1,-1,-1,-1,-1,-1,-1,-1,-1,-1,-1,-1,-1,-1,-1,-1,-1,-1,-1,-1,-1,-1,-1,-1,-1,-1,-1,-1,-1,-1,-1,-1,-1,-1,-1,-1],"split_conditions":[2.018E3,2.015E3,8E0,2.1516098E-2,1.1E1,9.946708E-1,-3.6572254E-1,2.013E3,2.013E3,-7.0558363E-1,2.017E3,9.275417E-1,2E0,-5.4524046E-1,-1.9667289E-1,-2.4430815E1,2.014E3,-4.3022234E-2,2.2E1,-2.1772324E-1,8.0392796E-1,-1.5430883E-1,-6.870528E-1,2.02E3,2.022E3,2.021E3,2.022E3,2.019E3,2.019E3,-9.3985605E-1,3E1,-5.3437257E-1,-2.0475954E1,-1.9857906E1,-1.053337E1,9.998518E-1,-1.3586886E1,2.016E3,2.7E1,9.9421793E-1,2.017E3,2.016E3,2.2E1,1.1E1,-2.4702218E-1,6.387494E-1,6.51899E-1,1.5855938E-1,3.253421E-1,4.0485897E1,9.700396E1,2.02E3,6E0,2.718407E1,2.021E3,3E0,2.021E3,8E0,2.02E3,-2.5818441E-2,2.019E3,-1.9802076E1,-1.374601E1,-1.6502838E1,-6.3415484E0,-8.442761E0,-1.6502419E1,-1.1114577E1,-7.3152237E0,-1.7599714E1,-1.0456943E1,-9.0941305E0,-1.9453856E1,-1.4130977E1,-1.09316225E1,-3.880713E0,-1.7711298E1,-1.5169826E1,-3.85138E0,2.0428907E1,1.1349447E1,1.1004497E1,-1.1030463E0,1.1683829E1,2.4531666E1,2.1127947E1,9.897952E0,3.3151516E1,-4.624673E0,3.4597973E1,1.787436E1,4.892999E1,4.982446E0,1.5959729E1,2.4767641E1,4.081384E0,-2.2532804E1,2.1897984E1,1.1196838E1,1.9148766E1,2.6211014E1,2.7230076E1,3.2700607E1,2.0732534E1,-3.36635E1,9.123535E0,4.006563E1],"split_indices":[0,0,1,5,1,5,5,0,0,4,0,4,2,4,4,0,0,4,2,5,5,4,4,0,0,0,0,0,0,4,2,5,0,0,0,5,0,0,2,4,0,0,2,2,4,5,5,5,5,0,0,0,2,0,0,2,0,2,0,4,0,0,0,0,0,0,0,0,0,0,0,0,0,0,0,0,0,0,0,0,0,0,0,0,0,0,0,0,0,0,0,0,0,0,0,0,0,0,0,0,0,0,0,0,0,0,0],"split_type":[0,0,0,0,0,0,0,0,0,0,0,0,0,0,0,0,0,0,0,0,0,0,0,0,0,0,0,0,0,0,0,0,0,0,0,0,0,0,0,0,0,0,0,0,0,0,0,0,0,0,0,0,0,0,0,0,0,0,0,0,0,0,0,0,0,0,0,0,0,0,0,0,0,0,0,0,0,0,0,0,0,0,0,0,0,0,0,0,0,0,0,0,0,0,0,0,0,0,0,0,0,0,0,0,0,0,0],"sum_hessian":[3.624E3,1.973E3,1.651E3,8.77E2,1.096E3,1.039E3,6.12E2,4.23E2,4.54E2,9.13E2,1.83E2,1.009E3,3E1,1.55E2,4.57E2,5.5E1,3.68E2,9.2E1,3.62E2,2.29E2,6.84E2,1.22E2,6.1E1,7.84E2,2.25E2,5E0,2.5E1,1.4E2,1.5E1,4.08E2,4.9E1,1.84E2,1.84E2,8.8E1,4E0,2.5E2,1.12E2,9.6E1,1.33E2,5.73E2,1.11E2,1.01E2,2.1E1,1.6E1,4.5E1,3.22E2,4.62E2,1.8E2,4.5E1,3E0,2E0,2E1,5E0,3.5E1,1.05E2,4E0,1.1E1,1.6E2,2.48E2,4.1E1,8E0,1.16E2,6.8E1,2.48E2,2E0,3.2E1,6.4E1,1.06E2,2.7E1,5.34E2,3.9E1,7.4E1,3.7E1,5.1E1,5E1,1E0,2E1,1E1,6E0,3E1,1.5E1,2.32E2,9E1,3.3E2,1.32E2,1.24E2,5.6E1,4.1E1,4E0,1E1,1E1,4E0,1E0,7E1,3.5E1,2E0,2E0,7E0,4E0,2.8E1,1.32E2,1.24E2,1.24E2,4E1,1E0,2E0,6E0],"tree_param":{"num_deleted":"0","num_feature":"6","num_nodes":"107","size_leaf_vector":"1"}},{"base_weights":[8.2251495E-1,-1.4128189E2,1.7062474E2,-1.6320143E2,-1.2360948E2,1.3406322E2,2.3237573E2,-1.7894318E2,-1.4817351E2,-1.3797269E2,-5.159001E1,1.3063928E2,7.023482E2,1.9293954E2,2.5259488E2,-2.2031359E1,-1.721798E2,-1.764578E2,-1.4051892E2,-1.08091484E2,-1.481553E2,-1.2272238E2,9.0359535E1,9.711298E1,1.587932E2,4.281719E1,1.036615E2,1.9952394E2,9.98105E1,2.5975085E2,1.9702188E2,-1.5903462E2,-1.8439428E1,-1.8256842E1,-1.2893575E1,-1.4811523E2,-1.2240219E2,-8.5044876E1,-1.19586525E2,-1.4911856E2,5.1674805E1,-1.1427425E2,-1.5631273E2,-1.0373358E2,1.6012526E2,6.3203876E1,1.2112309E2,2.0895566E2,1.3912784E2,2.4817082E2,1.8174104E2,-1.0332796E2,1.7613399E2,2.3537843E2,2.8265573E2,2.5218558E2,1.3640208E2,-1.7793987E1,-1.2308303E1,-1.4859181E1,-5.918779E0,-6.635659E0,-1.2385014E1,-9.38585E0,-3.104498E0,-8.451226E0,-1.3597379E1,-1.3855395E1,-1.695412E1,1.2296916E1,-8.110413E0,-1.2745054E1,-9.859893E0,-1.7748499E1,-1.0601001E1,-1.3790753E1,-3.5212593E0,1.8451912E1,1.0285433E1,7.2023783E0,-1.890026E1,5.2101865E0,1.3428626E1,2.8941934E0,2.3521547E1,2.6417282E1,1.2473994E1,1.2227567E1,2.5360508E1,1.5989512E1,2.2136114E1,3.8092897E0,-2.1030615E1,1.9981913E1,1.0301097E1,2.1367735E1,2.662486E1,3.0473347E1,2.2525246E1,3.0854944E1,1.7642282E1,9.185873E0,3.0511246E1],"categories":[],"categories_nodes":[],"categories_segments":[],"categories_sizes":[],"default_left":[0,0,0,0,0,0,0,0,0,0,0,0,0,0,0,0,0,0,0,0,0,0,0,0,0,0,0,0,0,0,0,0,0,0,0,0,0,0,0,0,0,0,0,0,0,0,0,0,0,0,0,0,0,0,0,0,0,0,0,0,0,0,0,0,0,0,0,0,0,0,0,0,0,0,0,0,0,0,0,0,0,0,0,0,0,0,0,0,0,0,0,0,0,0,0,0,0,0,0,0,0,0,0],"id":15,"left_children":[1,3,5,7,9,11,13,15,17,19,21,23,25,27,29,-1,31,33,35,37,39,41,43,45,47,-1,-1,49,51,53,55,57,-1,-1,-1,59,61,63,65,67,69,71,73,75,77,79,81,83,85,87,89,91,93,95,97,99,101,-1,-1,-1,-1,-1,-1,-1,-1,-1,-1,-1,-1,-1,-1,-1,-1,-1,-1,-1,-1,-1,-1,-1,-1,-1,-1,-1,-1,-1,-1,-1,-1,-1,-1,-1,-1,-1,-1,-1,-1,-1,-1,-1,-1,-1,-1],"loss_changes":[8.749406E7,7.44496E5,3.698584E6,1.8119E5,1.127654E6,1.931848E6,4.40048E5,8.0703E4,7.3713E4,2.62088E5,1.8689754E6,9.61512E5,1.0603875E5,1.10084E5,1.08692E5,0E0,2.9922E4,3.467E3,3.18265E4,5.23515E4,1.38404E5,1.7041875E4,8.5615525E5,3.790715E5,5.24334E5,0E0,0E0,1.25318E5,2.662673E5,1.3053E5,1.32802E5,1.03838E5,0E0,0E0,0E0,1.8425E3,9.5175E2,3.6112812E4,7.7598E4,1.22361E5,4.7838855E4,8.50075E3,4.6153125E3,3.495167E4,4.528625E4,4.5627575E5,2.446685E5,7.306245E5,6.97496E5,3.1975E3,9.2705E4,8.365591E4,1.9959375E2,6.1683E4,1.55676E5,5.232175E4,1.6736084E5,0E0,0E0,0E0,0E0,0E0,0E0,0E0,0E0,0E0,0E0,0E0,0E0,0E0,0E0,0E0,0E0,0E0,0E0,0E0,0E0,0E0,0E0,0E0,0E0,0E0,0E0,0E0,0E0,0E0,0E0,0E0,0E0,0E0,0E0,0E0,0E0,0E0,0E0,0E0,0E0,0E0,0E0,0E0,0E0,0E0,0E0],"parents":[2147483647,0,0,1,1,2,2,3,3,4,4,5,5,6,6,7,7,8,8,9,9,10,10,11,11,12,12,13,13,14,14,16,16,17,17,18,18,19,19,20,20,21,21,22,22,23,23,24,24,27,27,28,28,29,29,30,30,31,31,35,35,36,36,37,37,38,38,39,39,40,40,41,41,42,42,43,43,44,44,45,45,46,46,47,47,48,48,49,49,50,50,51,51,52,52,53,53,54,54,55,55,56,56],"right_children":[2,4,6,8,10,12,14,16,18,20,22,24,26,28,30,-1,32,34,36,38,40,42,44,46,48,-1,-1,50,52,54,56,58,-1,-1,-1,60,62,64,66,68,70,72,74,76,78,80,82,84,86,88,90,92,94,96,98,100,102,-1,-1,-1,-1,-1,-1,-1,-1,-1,-1,-1,-1,-1,-1,-1,-1,-1,-1,-1,-1,-1,-1,-1,-1,-1,-1,-1,-1,-1,-1,-1,-1,-1,-1,-1,-1,-1,-1,-1,-1,-1,-1,-1,-1,-1,-1],"split_conditions":[2.018E3,2.015E3,8E0,2.1516098E-2,1.1E1,9.998518E-1,-1.3301471E-1,2.013E3,2.013E3,-6.870528E-1,2.017E3,-3.6572254E-1,2.022E3,-5.4524046E-1,-1.9667289E-1,-2.2031359E1,2.014E3,-1.9667289E-1,2.2E1,-9.721182E-1,9.998518E-1,-1.5430883E-1,-6.870528E-1,2.02E3,1.5855938E-1,4.281719E1,1.036615E2,2.019E3,2.019E3,2.02E3,2.02E3,-5.197438E-1,-1.8439428E1,-1.8256842E1,-1.2893575E1,9.998518E-1,-9.209713E-1,2.7E1,2.016E3,2.017E3,2.017E3,2.016E3,2.8E1,1.1E1,-2.4702218E-1,9.0701383E-1,6E0,5E0,1.7129314E-1,-9.813065E-1,2.021E3,3E0,2.021E3,-7.0558363E-1,-5.947267E-1,2.6E1,3E1,-1.7793987E1,-1.2308303E1,-1.4859181E1,-5.918779E0,-6.635659E0,-1.2385014E1,-9.38585E0,-3.104498E0,-8.451226E0,-1.3597379E1,-1.3855395E1,-1.695412E1,1.2296916E1,-8.110413E0,-1.2745054E1,-9.859893E0,-1.7748499E1,-1.0601001E1,-1.3790753E1,-3.5212593E0,1.8451912E1,1.0285433E1,7.2023783E0,-1.890026E1,5.2101865E0,1.3428626E1,2.8941934E0,2.3521547E1,2.6417282E1,1.2473994E1,1.2227567E1,2.5360508E1,1.5989512E1,2.2136114E1,3.8092897E0,-2.1030615E1,1.9981913E1,1.0301097E1,2.1367735E1,2.662486E1,3.0473347E1,2.2525246E1,3.0854944E1,1.7642282E1,9.185873E0,3.0511246E1],"split_indices":[0,0,1,5,1,5,5,0,0,4,0,5,0,4,4,0,0,4,2,4,5,4,4,0,5,0,0,0,0,0,0,5,0,0,0,5,4,2,0,0,0,0,2,2,4,4,2,2,4,4,0,2,0,4,4,2,2,0,0,0,0,0,0,0,0,0,0,0,0,0,0,0,0,0,0,0,0,0,0,0,0,0,0,0,0,0,0,0,0,0,0,0,0,0,0,0,0,0,0,0,0,0,0],"split_type":[0,0,0,0,0,0,0,0,0,0,0,0,0,0,0,0,0,0,0,0,0,0,0,0,0,0,0,0,0,0,0,0,0,0,0,0,0,0,0,0,0,0,0,0,0,0,0,0,0,0,0,0,0,0,0,0,0,0,0,0,0,0,0,0,0,0,0,0,0,0,0,0,0,0,0,0,0,0,0,0,0,0,0,0,0,0,0,0,0,0,0,0,0,0,0,0,0,0,0,0,0,0,0],"sum_hessian":[3.624E3,1.973E3,1.651E3,8.77E2,1.096E3,1.039E3,6.12E2,4.23E2,4.54E2,9.13E2,1.83E2,1.034E3,5E0,2.11E2,4.01E2,5.5E1,3.68E2,9.2E1,3.62E2,2.35E2,6.78E2,1.22E2,6.1E1,4.74E2,5.6E2,4E0,1E0,1.96E2,1.5E1,3.52E2,4.9E1,1.84E2,1.84E2,7.9E1,1.3E1,2.5E2,1.12E2,8.1E1,1.54E2,6.75E2,3E0,1.01E2,2.1E1,1.6E1,4.5E1,1.98E2,2.76E2,1.55E2,4.05E2,4.9E1,1.47E2,4E0,1.1E1,1.76E2,1.76E2,2.4E1,2.5E1,1.18E2,6.6E1,2.48E2,2E0,4E0,1.08E2,6.9E1,1.2E1,5.1E1,1.03E2,4.5E2,2.25E2,2E0,1E0,5.1E1,5E1,1.3E1,8E0,1E1,6E0,3E1,1.5E1,1.92E2,6E0,4.5E1,2.31E2,2E1,1.35E2,4E1,3.65E2,3E0,4.6E1,9.8E1,4.9E1,2E0,2E0,7E0,4E0,1.08E2,6.8E1,1.24E2,5.2E1,1.2E1,1.2E1,2.1E1,4E0],"tree_param":{"num_deleted":"0","num_feature":"6","num_nodes":"103","size_leaf_vector":"1"}},{"base_weights":[8.1047016E-1,-1.272764E2,1.5386293E2,-1.3828821E2,-9.873015E1,1.2086722E2,2.0959161E2,-1.9867563E1,-1.3571324E2,-1.23241905E2,2.3835974E1,1.17645164E2,6.5652655E2,1.6517447E2,2.2426299E2,-1.433712E2,-1.2323497E2,-1.4621082E2,-1.0745674E2,-9.5097435E1,1.4226224E2,8.7416306E1,1.430303E2,3.9391815E1,9.847842E1,1.4352818E2,2.045337E2,2.2762521E2,1.5964346E2,-1.2678607E2,-1.5465161E2,-1.24462296E2,4.0816855E0,-1.5914697E2,-1.317025E2,-1.5766122E2,-1.033589E2,-4.2766624E1,-1.06366135E2,4.9163105E1,1.546874E2,5.682469E1,1.090781E2,1.1787431E2,1.800727E2,1.19106705E2,1.6565913E2,2.3997227E1,1.6151984E2,2.0248676E2,2.4161665E2,6.470436E1,4.0809185E1,-1.4324986E1,-1.1517427E1,-1.7744183E1,-1.5049021E1,-1.2970485E1,-9.474975E0,3.5717602E0,-7.704895E0,-1.5996569E1,-4.1912384E0,-1.156276E1,-1.5619636E1,-1.6286812E1,-3.1968505E0,-1.1134943E1,-9.2049465E0,-5.691719E0,-2.8571072E0,-1.18663435E1,-3.4954712E0,1.3120775E1,-2.2155237E1,2.6838774E1,1.1899072E1,6.4858704E0,-1.728024E1,1.4644892E1,8.713725E0,5.941651E0,1.7563465E1,1.1596597E1,2.6049168E1,-8.0960655E0,1.2853995E1,1.7420141E1,5.052141E0,2.415801E1,1.0806858E1,2.1546295E1,1.4562569E1,2.5976248E1,1.8420343E1,1.601376E1,-9.84627E0],"categories":[],"categories_nodes":[],"categories_segments":[],"categories_sizes":[],"default_left":[0,0,0,0,0,0,0,0,0,0,0,0,0,0,0,0,0,0,0,0,0,0,0,0,0,0,0,0,0,0,0,0,0,0,0,0,0,0,0,0,0,0,0,0,0,0,0,0,0,0,0,0,0,0,0,0,0,0,0,0,0,0,0,0,0,0,0,0,0,0,0,0,0,0,0,0,0,0,0,0,0,0,0,0,0,0,0,0,0,0,0,0,0,0,0,0,0],"id":16,"left_children":[1,3,5,7,9,11,13,-1,15,17,19,21,23,25,27,29,31,33,35,37,39,41,43,-1,-1,45,47,49,51,53,55,57,59,61,63,65,67,69,71,73,75,77,79,81,83,85,87,-1,89,91,93,95,-1,-1,-1,-1,-1,-1,-1,-1,-1,-1,-1,-1,-1,-1,-1,-1,-1,-1,-1,-1,-1,-1,-1,-1,-1,-1,-1,-1,-1,-1,-1,-1,-1,-1,-1,-1,-1,-1,-1,-1,-1,-1,-1,-1,-1],"loss_changes":[7.108412E7,6.06866E5,3.01238E6,1.94152E5,1.664322E6,1.71772E6,3.62424E5,0E0,1.1296E5,1.514325E5,1.3234188E6,7.81718E5,1.29295E5,1.035525E5,6.3168E4,1.3773E5,8.2857E4,1.376125E4,4.069175E4,2.3166969E4,4.6763375E4,3.085695E5,5.01535E5,0E0,0E0,3.647775E4,4.20305E4,1.03374E5,5.8686894E5,4.9648E4,2.0338E4,6.9022E4,1.8151855E4,2.22175E3,1.8556875E4,7.22825E3,1.315575E4,3.825664E2,2.9222531E4,1.8454467E5,1.3447206E5,3.783283E5,2.1436425E5,1.1274595E6,1.129756E6,1.1043275E5,4.234325E4,0E0,8.94345E4,8.7415E4,2.36566E5,3.2719875E5,0E0,0E0,0E0,0E0,0E0,0E0,0E0,0E0,0E0,0E0,0E0,0E0,0E0,0E0,0E0,0E0,0E0,0E0,0E0,0E0,0E0,0E0,0E0,0E0,0E0,0E0,0E0,0E0,0E0,0E0,0E0,0E0,0E0,0E0,0E0,0E0,0E0,0E0,0E0,0E0,0E0,0E0,0E0,0E0,0E0],"parents":[2147483647,0,0,1,1,2,2,3,3,4,4,5,5,6,6,8,8,9,9,10,10,11,11,12,12,13,13,14,14,15,15,16,16,17,17,18,18,19,19,20,20,21,21,22,22,25,25,26,26,27,27,28,28,29,29,30,30,31,31,32,32,33,33,34,34,35,35,36,36,37,37,38,38,39,39,40,40,41,41,42,42,43,43,44,44,45,45,46,46,48,48,49,49,50,50,51,51],"right_children":[2,4,6,8,10,12,14,-1,16,18,20,22,24,26,28,30,32,34,36,38,40,42,44,-1,-1,46,48,50,52,54,56,58,60,62,64,66,68,70,72,74,76,78,80,82,84,86,88,-1,90,92,94,96,-1,-1,-1,-1,-1,-1,-1,-1,-1,-1,-1,-1,-1,-1,-1,-1,-1,-1,-1,-1,-1,-1,-1,-1,-1,-1,-1,-1,-1,-1,-1,-1,-1,-1,-1,-1,-1,-1,-1,-1,-1,-1,-1,-1,-1],"split_conditions":[2.018E3,1E1,8E0,2.013E3,2.017E3,9.998518E-1,-3.6572254E-1,-1.9867563E1,-1.159346E-1,2.014E3,-7.0558363E-1,-3.6572254E-1,2.022E3,1.9E1,-9.453675E-2,-2.553533E-1,9.998518E-1,2.013E3,3E0,-9.8867756E-1,7E0,2.02E3,2.021E3,3.9391815E1,9.847842E1,2.02E3,2.02E3,-9.3985605E-1,2.021E3,2.015E3,-9.9167734E-1,2.7E1,2.017E3,1.7213356E-2,-5.234156E-1,-4.7115952E-1,-6.152846E-1,4E0,2.6E1,6E0,1.5E1,9.0701383E-1,2.021E3,8.3592546E-1,1.7E1,-9.209713E-1,1.7E1,2.3997227E1,-8.311706E-1,2.0931464E-1,2.021E3,2.02E3,4.0809185E1,-1.4324986E1,-1.1517427E1,-1.7744183E1,-1.5049021E1,-1.2970485E1,-9.474975E0,3.5717602E0,-7.704895E0,-1.5996569E1,-4.1912384E0,-1.156276E1,-1.5619636E1,-1.6286812E1,-3.1968505E0,-1.1134943E1,-9.2049465E0,-5.691719E0,-2.8571072E0,-1.18663435E1,-3.4954712E0,1.3120775E1,-2.2155237E1,2.6838774E1,1.1899072E1,6.4858704E0,-1.728024E1,1.4644892E1,8.713725E0,5.941651E0,1.7563465E1,1.1596597E1,2.6049168E1,-8.0960655E0,1.2853995E1,1.7420141E1,5.052141E0,2.415801E1,1.0806858E1,2.1546295E1,1.4562569E1,2.5976248E1,1.8420343E1,1.601376E1,-9.84627E0],"split_indices":[0,1,1,0,0,5,5,0,5,0,4,5,0,2,4,4,5,0,2,4,2,0,0,0,0,0,0,4,0,0,5,2,0,4,4,4,4,2,2,2,2,4,0,4,2,4,2,0,4,5,0,0,0,0,0,0,0,0,0,0,0,0,0,0,0,0,0,0,0,0,0,0,0,0,0,0,0,0,0,0,0,0,0,0,0,0,0,0,0,0,0,0,0,0,0,0,0],"split_type":[0,0,0,0,0,0,0,0,0,0,0,0,0,0,0,0,0,0,0,0,0,0,0,0,0,0,0,0,0,0,0,0,0,0,0,0,0,0,0,0,0,0,0,0,0,0,0,0,0,0,0,0,0,0,0,0,0,0,0,0,0,0,0,0,0,0,0,0,0,0,0,0,0,0,0,0,0,0,0,0,0,0,0,0,0,0,0,0,0,0,0,0,0,0,0,0,0],"sum_hessian":[3.624E3,1.973E3,1.651E3,1.421E3,5.52E2,1.039E3,6.12E2,5.5E1,1.366E3,4.6E2,9.2E1,1.034E3,5E0,1.55E2,4.57E2,8.4E2,5.26E2,1.84E2,2.76E2,4.6E1,4.6E1,4.74E2,5.6E2,4E0,1E0,1.03E2,5.2E1,4.32E2,2.5E1,3.45E2,4.95E2,5.21E2,5E0,9.2E1,9.2E1,1.8E1,2.58E2,9E0,3.7E1,6E0,4E1,1.98E2,2.76E2,3.36E2,2.24E2,5.2E1,5.1E1,2.6E1,2.6E1,1.6E2,2.72E2,1.9E1,6E0,1.38E2,2.07E2,7E1,4.25E2,4.4E2,8.1E1,4E0,1E0,9.1E1,1E0,5.9E1,3.3E1,1.7E1,1E0,1.46E2,1.12E2,3E0,6E0,3.1E1,6E0,5E0,1E0,8E0,3.2E1,1.92E2,6E0,1E2,1.76E2,1.68E2,1.68E2,1.26E2,9.8E1,2E0,5E1,4.7E1,4E0,9E0,1.7E1,1.28E2,3.2E1,2.04E2,6.8E1,1.2E1,7E0],"tree_param":{"num_deleted":"0","num_feature":"6","num_nodes":"97","size_leaf_vector":"1"}},{"base_weights":[7.952847E-1,-1.1464323E2,1.3873404E2,-1.3298206E2,-9.986098E1,1.0898394E2,1.8898099E2,-1.458527E2,-1.2069603E2,-1.1477658E2,-5.5292152E1,1.0191389E2,3.3581516E2,1.5690952E2,2.0591177E2,-1.7916286E1,-1.4040224E2,-1.4344933E2,-1.1453418E2,-1.0421842E2,-1.35474E2,-9.360427E1,2.1514675E1,8.455647E1,1.4065434E2,6.1385223E2,2.587368E2,1.6859747E2,1.124892E2,2.1949979E2,1.8388254E2,-1.2865523E2,-1.5139032E2,-1.4874318E1,-1.0295243E1,-1.2110467E2,-9.892597E1,-1.11237E2,-4.4162144E1,-1.0895379E1,-1.3917976E2,-8.7724106E1,-1.3318353E2,-8.395896E1,1.3110641E2,4.301152E1,1.134932E2,1.4899818E2,6.0484158E1,3.624047E1,9.35545E1,2.1770383E2,3.592294E2,2.1465257E2,1.5167648E2,5.6178288E1,1.2969899E2,1.8141734E2,2.5576819E2,2.1786307E2,7.81934E1,-1.4576922E1,-9.777129E0,-1.4346982E1,-1.7736269E1,-1.4244928E1,-1.1613375E1,-1.0651175E1,-8.1801405E0,-7.1794906E0,-1.193377E1,1.1239005E1,-5.1626964E0,-1.7964941E0,-1.6467407E-1,-1.3238513E1,-1.9442167E1,-1.4024712E1,-8.265487E0,-2.3390045E0,-1.3729797E1,-8.952897E0,-3.0667115E-2,4.2956195E0,1.4325503E1,-2.5146246E0,8.885804E0,7.4801936E0,1.9409517E1,7.138172E0,1.6799881E1,2.8276596E1,-4.1741115E-1,2.8510984E1,1.3050658E1,4.197448E1,2.8326294E0,1.1216179E1,2.222885E1,1.3285888E1,1.8534674E1,-1.0672263E1,1.4043677E1,1.5018544E1,1.008689E1,1.5594655E1,2.2731289E1,1.6642405E1,2.8602198E1,2.4754858E1,5.854237E0,1.5174927E0,3.731126E1],"categories":[],"categories_nodes":[],"categories_segments":[],"categories_sizes":[],"default_left":[0,0,0,0,0,0,0,0,0,0,0,0,0,0,0,0,0,0,0,0,0,0,0,0,0,0,0,0,0,0,0,0,0,0,0,0,0,0,0,0,0,0,0,0,0,0,0,0,0,0,0,0,0,0,0,0,0,0,0,0,0,0,0,0,0,0,0,0,0,0,0,0,0,0,0,0,0,0,0,0,0,0,0,0,0,0,0,0,0,0,0,0,0,0,0,0,0,0,0,0,0,0,0,0,0,0,0,0,0,0,0,0,0],"id":17,"left_children":[1,3,5,7,9,11,13,15,17,19,21,23,25,27,29,-1,31,33,35,37,39,41,43,45,47,49,51,53,55,57,59,61,63,-1,-1,65,67,69,71,73,75,77,79,81,83,85,87,89,91,-1,-1,93,95,97,99,101,103,105,107,109,111,-1,-1,-1,-1,-1,-1,-1,-1,-1,-1,-1,-1,-1,-1,-1,-1,-1,-1,-1,-1,-1,-1,-1,-1,-1,-1,-1,-1,-1,-1,-1,-1,-1,-1,-1,-1,-1,-1,-1,-1,-1,-1,-1,-1,-1,-1,-1,-1,-1,-1,-1,-1],"loss_changes":[5.7738396E7,5.21852E5,2.4489E6,1.21234E5,7.22907E5,1.633632E6,3.00544E5,5.1825E4,4.73625E4,1.65291E5,8.171231E5,6.67266E5,5.055235E5,9.31785E4,7.8774E4,0E0,2.81515E4,4.624375E3,2.52465E4,2.26075E5,1.24978E5,3.137225E4,1.0859982E6,8.36641E5,1.99025E5,1.4628725E5,2.9005625E4,9.91435E4,3.92305E4,2.86466E5,5.50402E5,8.352925E4,1.2611E4,0E0,0E0,1.00885E4,5.966125E3,1.479915E5,7.475172E4,5.588707E2,7.41045E4,3.2073125E4,6.726875E3,2.2337844E4,4.3107875E4,9.053005E5,1.2703415E6,4.02416E5,4.4672334E5,0E0,0E0,8.6221375E4,1.0825856E5,8.720125E3,5.58415E4,1.9342297E5,6.1135E3,1.06E5,2.79462E5,5.483195E5,7.377524E5,0E0,0E0,0E0,0E0,0E0,0E0,0E0,0E0,0E0,0E0,0E0,0E0,0E0,0E0,0E0,0E0,0E0,0E0,0E0,0E0,0E0,0E0,0E0,0E0,0E0,0E0,0E0,0E0,0E0,0E0,0E0,0E0,0E0,0E0,0E0,0E0,0E0,0E0,0E0,0E0,0E0,0E0,0E0,0E0,0E0,0E0,0E0,0E0,0E0,0E0,0E0,0E0],"parents":[2147483647,0,0,1,1,2,2,3,3,4,4,5,5,6,6,7,7,8,8,9,9,10,10,11,11,12,12,13,13,14,14,16,16,17,17,18,18,19,19,20,20,21,21,22,22,23,23,24,24,25,25,26,26,27,27,28,28,29,29,30,30,31,31,32,32,35,35,36,36,37,37,38,38,39,39,40,40,41,41,42,42,43,43,44,44,45,45,46,46,47,47,48,48,51,51,52,52,53,53,54,54,55,55,56,56,57,57,58,58,59,59,60,60],"right_children":[2,4,6,8,10,12,14,16,18,20,22,24,26,28,30,-1,32,34,36,38,40,42,44,46,48,50,52,54,56,58,60,62,64,-1,-1,66,68,70,72,74,76,78,80,82,84,86,88,90,92,-1,-1,94,96,98,100,102,104,106,108,110,112,-1,-1,-1,-1,-1,-1,-1,-1,-1,-1,-1,-1,-1,-1,-1,-1,-1,-1,-1,-1,-1,-1,-1,-1,-1,-1,-1,-1,-1,-1,-1,-1,-1,-1,-1,-1,-1,-1,-1,-1,-1,-1,-1,-1,-1,-1,-1,-1,-1,-1,-1,-1],"split_conditions":[2.018E3,2.015E3,8E0,2.1516098E-2,1E1,9.946708E-1,-1.159346E-1,2.013E3,2.013E3,2.017E3,2.017E3,8.6314213E-1,2E0,-6.616346E-1,-6.152846E-1,-1.7916286E1,2.014E3,-1.9667289E-1,2.2E1,8.779601E-1,-9.899325E-1,-1.5430883E-1,-6.870528E-1,2.02E3,9.9887973E-1,2.022E3,2.022E3,2.019E3,2.019E3,2.02E3,2.021E3,-5.3437257E-1,-3.008198E-1,-1.4874318E1,-1.0295243E1,2E0,1.1E1,-7.469721E-1,2E0,2.7E1,9.0150166E-1,3E0,2.2E1,-7.23644E-1,7E0,1.4E1,6.51899E-1,2.019E3,2.019E3,3.624047E1,9.35545E1,2.02E3,6E0,-9.813065E-1,2.021E3,5E0,7E0,2.1E1,-9.8867756E-1,-9.453675E-2,-9.453675E-2,-1.4576922E1,-9.777129E0,-1.4346982E1,-1.7736269E1,-1.4244928E1,-1.1613375E1,-1.0651175E1,-8.1801405E0,-7.1794906E0,-1.193377E1,1.1239005E1,-5.1626964E0,-1.7964941E0,-1.6467407E-1,-1.3238513E1,-1.9442167E1,-1.4024712E1,-8.265487E0,-2.3390045E0,-1.3729797E1,-8.952897E0,-3.0667115E-2,4.2956195E0,1.4325503E1,-2.5146246E0,8.885804E0,7.4801936E0,1.9409517E1,7.138172E0,1.6799881E1,2.8276596E1,-4.1741115E-1,2.8510984E1,1.3050658E1,4.197448E1,2.8326294E0,1.1216179E1,2.222885E1,1.3285888E1,1.8534674E1,-1.0672263E1,1.4043677E1,1.5018544E1,1.008689E1,1.5594655E1,2.2731289E1,1.6642405E1,2.8602198E1,2.4754858E1,5.854237E0,1.5174927E0,3.731126E1],"split_indices":[0,0,1,5,1,5,5,0,0,0,0,4,2,4,4,0,0,4,2,5,4,4,4,0,4,0,0,0,0,0,0,5,5,0,0,1,1,4,2,2,5,2,2,4,2,2,5,0,0,0,0,0,2,4,0,2,2,2,4,4,4,0,0,0,0,0,0,0,0,0,0,0,0,0,0,0,0,0,0,0,0,0,0,0,0,0,0,0,0,0,0,0,0,0,0,0,0,0,0,0,0,0,0,0,0,0,0,0,0,0,0,0,0],"split_type":[0,0,0,0,0,0,0,0,0,0,0,0,0,0,0,0,0,0,0,0,0,0,0,0,0,0,0,0,0,0,0,0,0,0,0,0,0,0,0,0,0,0,0,0,0,0,0,0,0,0,0,0,0,0,0,0,0,0,0,0,0,0,0,0,0,0,0,0,0,0,0,0,0,0,0,0,0,0,0,0,0,0,0,0,0,0,0,0,0,0,0,0,0,0,0,0,0,0,0,0,0,0,0,0,0,0,0,0,0,0,0,0,0],"sum_hessian":[3.624E3,1.973E3,1.651E3,8.77E2,1.096E3,1.039E3,6.12E2,4.23E2,4.54E2,8.2E2,2.76E2,1.009E3,3E1,2.15E2,3.97E2,5.5E1,3.68E2,9.2E1,3.62E2,5.47E2,2.73E2,1.84E2,9.2E1,6.99E2,3.1E2,5E0,2.5E1,1.68E2,4.7E1,2.4E2,1.57E2,1.84E2,1.84E2,7.9E1,1.3E1,2.5E2,1.12E2,4.89E2,5.8E1,8E0,2.65E2,1.63E2,2.1E1,4.7E1,4.5E1,2.88E2,4.11E2,2.8E2,3E1,4E0,1E0,2E1,5E0,4.2E1,1.26E2,1.2E1,3.5E1,1.2E2,1.2E2,1.18E2,3.9E1,1.16E2,6.8E1,1.46E2,3.8E1,4.2E1,2.08E2,7.4E1,3.8E1,8.5E1,4.04E2,2E0,5.6E1,4E0,4E0,2.39E2,2.6E1,1.2E1,1.51E2,1E0,2E1,4.4E1,3E0,6E0,3.9E1,1.16E2,1.72E2,2.79E2,1.32E2,5.6E1,2.24E2,6E0,2.4E1,1E1,1E1,4E0,1E0,4E0,3.8E1,8.4E1,4.2E1,4E0,8E0,1.8E1,1.7E1,8E1,4E1,3.2E1,8.8E1,9.9E1,1.9E1,3.3E1,6E0],"tree_param":{"num_deleted":"0","num_feature":"6","num_nodes":"113","size_leaf_vector":"1"}},{"base_weights":[8.06056E-1,-1.03290665E2,1.2519232E2,-1.1984809E2,-8.994452E1,1.6115456E2,9.115366E1,-1.3144281E2,-1.0877995E2,-1.0335699E2,-4.9866627E1,9.681644E1,1.8322978E2,7.0519104E1,1.2675542E2,-1.615665E1,-1.2651497E2,-1.1728555E2,-9.537711E1,-9.382036E1,-1.2205302E2,-8.445118E1,1.9466803E1,5.7271534E1,1.3050148E2,1.7871655E2,5.374545E2,3.4491707E1,9.435734E1,1.3418352E2,5.533438E1,-1.1592137E2,-1.3642471E2,-1.3045268E2,-1.0536379E2,-1.0744176E2,-3.5466537E1,-1.001523E2,-3.9642918E1,-1.5598608E1,-1.2560958E2,-7.344382E1,-1.02310265E2,-7.575024E1,1.1840053E2,1.1668853E2,1.3528232E1,1.6427582E2,1.0216109E2,1.5911552E2,1.9543874E2,6.180603E2,2.6910036E0,-6.8301155E1,8.816284E1,3.8412052E1,1.7483163E2,6.436877E1,1.5127356E2,2.5852887E2,-3.7734473E0,-1.3131691E1,-8.813589E0,-2.0165741E1,-1.3311156E1,-1.316783E1,1.1375122E0,-8.030858E0,-1.1382159E1,-1.2429157E1,-8.193263E0,-4.0442605E0,9.4766086E-1,-6.2392917E0,-1.0704111E1,1.04897375E1,-4.6554813E0,-3.6445599E0,-5.831162E-1,-9.610195E0,-1.3611968E1,-8.05046E0,-4.6664696E0,-8.482156E0,-1.2729889E1,-7.987906E0,1.2808431E0,1.3940129E1,6.0441527E0,6.961992E0,1.6752483E1,1.5242339E1,-5.4485517E0,1.5907898E0,1.670354E1,8.980723E0,1.3570627E1,1.2140689E1,1.6987585E1,2.2050383E1,1.760481E1,8.887677E1,3.8616528E1,-3.585275E-1,-1.7083029E1,6.111507E0,2.8503962E1,5.8651066E0,-1.8914776E1,3.2858437E1,1.0025803E1,8.475001E-2,2.4217184E1,1.067282E1,2.1814367E1,2.8617249E0,2.9207792E1,-7.403657E0,1.8747982E1],"categories":[],"categories_nodes":[],"categories_segments":[],"categories_sizes":[],"default_left":[0,0,0,0,0,0,0,0,0,0,0,0,0,0,0,0,0,0,0,0,0,0,0,0,0,0,0,0,0,0,0,0,0,0,0,0,0,0,0,0,0,0,0,0,0,0,0,0,0,0,0,0,0,0,0,0,0,0,0,0,0,0,0,0,0,0,0,0,0,0,0,0,0,0,0,0,0,0,0,0,0,0,0,0,0,0,0,0,0,0,0,0,0,0,0,0,0,0,0,0,0,0,0,0,0,0,0,0,0,0,0,0,0,0,0,0,0,0,0],"id":18,"left_children":[1,3,5,7,9,11,13,15,17,19,21,23,25,27,29,-1,31,33,35,37,39,41,43,45,47,49,51,53,55,57,59,61,63,65,67,69,71,73,75,77,79,81,83,85,87,89,91,93,95,97,99,101,-1,103,105,107,109,111,113,115,117,-1,-1,-1,-1,-1,-1,-1,-1,-1,-1,-1,-1,-1,-1,-1,-1,-1,-1,-1,-1,-1,-1,-1,-1,-1,-1,-1,-1,-1,-1,-1,-1,-1,-1,-1,-1,-1,-1,-1,-1,-1,-1,-1,-1,-1,-1,-1,-1,-1,-1,-1,-1,-1,-1,-1,-1,-1,-1],"loss_changes":[4.6950164E7,4.25432E5,2.007532E6,9.8376E4,5.84532E5,1.121324E6,6.16229E5,4.25E4,4.0684E4,1.34931E5,6.658529E5,2.6826475E5,8.5677E5,4.61372E5,1.575675E5,0E0,2.2923E4,2.926625E4,1.27739E5,1.8402E5,1.017805E5,2.8853375E4,8.850453E5,2.5053372E5,8.9464125E4,1.6229E5,2.7143762E5,1.2032126E6,1.4564852E6,3.25534E5,3.7329747E5,6.756425E4,1.314E4,2.339975E4,2.2434125E4,5.471975E4,7.539746E3,1.20779E5,6.3827258E4,1.8236985E3,6.91025E4,1.8555E4,1.8919562E4,1.8573969E4,4.7564812E4,8.644144E4,5.467713E5,1.7405125E4,1.39205625E4,9.17705E4,1.13794E5,3.344275E4,0E0,4.9703225E5,7.44066E5,8.9997175E5,1.4920215E6,6.435685E5,6.469375E5,4.563478E4,3.4983166E5,0E0,0E0,0E0,0E0,0E0,0E0,0E0,0E0,0E0,0E0,0E0,0E0,0E0,0E0,0E0,0E0,0E0,0E0,0E0,0E0,0E0,0E0,0E0,0E0,0E0,0E0,0E0,0E0,0E0,0E0,0E0,0E0,0E0,0E0,0E0,0E0,0E0,0E0,0E0,0E0,0E0,0E0,0E0,0E0,0E0,0E0,0E0,0E0,0E0,0E0,0E0,0E0,0E0,0E0,0E0,0E0,0E0,0E0],"parents":[2147483647,0,0,1,1,2,2,3,3,4,4,5,5,6,6,7,7,8,8,9,9,10,10,11,11,12,12,13,13,14,14,16,16,17,17,18,18,19,19,20,20,21,21,22,22,23,23,24,24,25,25,26,26,27,27,28,28,29,29,30,30,31,31,32,32,33,33,34,34,35,35,36,36,37,37,38,38,39,39,40,40,41,41,42,42,43,43,44,44,45,45,46,46,47,47,48,48,49,49,50,50,51,51,53,53,54,54,55,55,56,56,57,57,58,58,59,59,60,60],"right_children":[2,4,6,8,10,12,14,16,18,20,22,24,26,28,30,-1,32,34,36,38,40,42,44,46,48,50,52,54,56,58,60,62,64,66,68,70,72,74,76,78,80,82,84,86,88,90,92,94,96,98,100,102,-1,104,106,108,110,112,114,116,118,-1,-1,-1,-1,-1,-1,-1,-1,-1,-1,-1,-1,-1,-1,-1,-1,-1,-1,-1,-1,-1,-1,-1,-1,-1,-1,-1,-1,-1,-1,-1,-1,-1,-1,-1,-1,-1,-1,-1,-1,-1,-1,-1,-1,-1,-1,-1,-1,-1,-1,-1,-1,-1,-1,-1,-1,-1,-1],"split_conditions":[2.018E3,2.015E3,1.11659005E-1,2.1516098E-2,1E1,-7.4410397E-1,8.6314213E-1,2.013E3,2.014E3,2.017E3,2.017E3,2.02E3,2.022E3,2.02E3,9.9887973E-1,-1.615665E1,2.014E3,1.5E1,1.2E1,8.779601E-1,-9.8594815E-1,-5.234156E-1,-6.870528E-1,1.1E1,2.021E3,3.4157076E-1,6E0,1.2E1,6.51899E-1,2.019E3,2.019E3,-5.3437257E-1,-9.95919E-1,9.998518E-1,4.3665123E-1,4.7873384E-1,2.9E1,-7.8564984E-1,2E0,2.4E1,9E0,-7.0558363E-1,2.2E1,-7.1767694E-1,2.5E1,-1.2874818E-1,-3.8566342E-1,-6.4205474E-1,-8.606997E-3,9E0,-6.152846E-1,2E0,2.6910036E0,7.721566E-1,7.7488405E-1,5.842982E-1,1.1E1,2.9260033E-1,9.721182E-1,-3.0120306E-2,2.022E3,-1.3131691E1,-8.813589E0,-2.0165741E1,-1.3311156E1,-1.316783E1,1.1375122E0,-8.030858E0,-1.1382159E1,-1.2429157E1,-8.193263E0,-4.0442605E0,9.4766086E-1,-6.2392917E0,-1.0704111E1,1.04897375E1,-4.6554813E0,-3.6445599E0,-5.831162E-1,-9.610195E0,-1.3611968E1,-8.05046E0,-4.6664696E0,-8.482156E0,-1.2729889E1,-7.987906E0,1.2808431E0,1.3940129E1,6.0441527E0,6.961992E0,1.6752483E1,1.5242339E1,-5.4485517E0,1.5907898E0,1.670354E1,8.980723E0,1.3570627E1,1.2140689E1,1.6987585E1,2.2050383E1,1.760481E1,8.887677E1,3.8616528E1,-3.585275E-1,-1.7083029E1,6.111507E0,2.8503962E1,5.8651066E0,-1.8914776E1,3.2858437E1,1.0025803E1,8.475001E-2,2.4217184E1,1.067282E1,2.1814367E1,2.8617249E0,2.9207792E1,-7.403657E0,1.8747982E1],"split_indices":[0,0,4,5,1,5,4,0,0,0,0,0,0,0,4,0,0,2,1,5,4,4,4,2,0,5,2,2,5,0,0,5,4,5,5,4,2,4,2,2,2,4,2,4,2,4,4,4,4,2,4,2,0,5,4,5,2,5,4,5,0,0,0,0,0,0,0,0,0,0,0,0,0,0,0,0,0,0,0,0,0,0,0,0,0,0,0,0,0,0,0,0,0,0,0,0,0,0,0,0,0,0,0,0,0,0,0,0,0,0,0,0,0,0,0,0,0,0,0],"split_type":[0,0,0,0,0,0,0,0,0,0,0,0,0,0,0,0,0,0,0,0,0,0,0,0,0,0,0,0,0,0,0,0,0,0,0,0,0,0,0,0,0,0,0,0,0,0,0,0,0,0,0,0,0,0,0,0,0,0,0,0,0,0,0,0,0,0,0,0,0,0,0,0,0,0,0,0,0,0,0,0,0,0,0,0,0,0,0,0,0,0,0,0,0,0,0,0,0,0,0,0,0,0,0,0,0,0,0,0,0,0,0,0,0,0,0,0,0,0,0],"sum_hessian":[3.624E3,1.973E3,1.651E3,8.77E2,1.096E3,8.01E2,8.5E2,4.23E2,4.54E2,8.2E2,2.76E2,2.06E2,5.95E2,5.4E2,3.1E2,5.5E1,3.68E2,2.73E2,1.81E2,5.47E2,2.73E2,1.84E2,9.2E1,9.6E1,1.1E2,5.89E2,6E0,2.16E2,3.24E2,2.8E2,3E1,1.84E2,1.84E2,1.25E2,1.48E2,1.5E2,3.1E1,4.89E2,5.8E1,9E0,2.64E2,1.17E2,6.7E1,4.7E1,4.5E1,4E1,5.6E1,4.8E1,6.2E1,2.76E2,3.13E2,5E0,1E0,7.4E1,1.42E2,1.92E2,1.32E2,5.6E1,2.24E2,6E0,2.4E1,1.16E2,6.8E1,6E0,1.78E2,1.24E2,1E0,4E1,1.08E2,8.8E1,6.2E1,2.8E1,3E0,7.7E1,4.12E2,2E0,5.6E1,2E0,7E0,7.2E1,1.92E2,9.1E1,2.6E1,4.2E1,2.5E1,4.5E1,2E0,3.2E1,1.3E1,2.2E1,1.8E1,1.8E1,3.8E1,1E0,4.7E1,4.8E1,1.4E1,6.4E1,2.12E2,1.32E2,1.81E2,1E0,4E0,4.6E1,2.8E1,1.26E2,1.6E1,1.77E2,1.5E1,4.2E1,9E1,4.2E1,1.4E1,1.36E2,8.8E1,1E0,5E0,1.8E1,6E0],"tree_param":{"num_deleted":"0","num_feature":"6","num_nodes":"119","size_leaf_vector":"1"}},{"base_weights":[7.9017144E-1,-9.30558E1,1.1292768E2,-1.0800764E2,-8.100405E1,1.4537994E2,8.2211296E1,-1.1873998E2,-9.822011E1,-9.306827E1,-4.495452E1,9.646511E1,1.6947487E2,6.3554092E1,1.1440208E2,-1.46638E1,-1.1423795E2,-1.17760445E2,-9.295178E1,-8.44586E1,-1.0994792E2,-7.618945E1,1.7662868E1,1.1798054E2,7.455386E1,1.647592E2,5.0230692E2,4.177608E1,9.587805E1,1.2832703E2,7.932717E1,-1.0451999E2,-1.2332476E2,-1.331929E1,-1.04634384E2,-1.11466896E2,-8.887604E1,-9.017165E1,-3.5579765E1,-3.22932E1,-1.1400513E2,-6.62072E1,-9.2391174E1,-7.20648E1,1.03283905E2,6.442045E1,1.24754395E2,2.2670233E1,1.157585E2,1.4565768E2,1.762655E2,5.7750323E2,2.5564575E0,1.613016E2,2.0481762E1,3.4900215E1,1.7680656E2,7.55817E1,1.6265791E2,2.1335495E2,-1.227929E1,-1.1800092E1,-7.7396965E0,-1.1826957E1,-1.7138435E1,-1.0548308E1,-2.8978088E0,-1.2497861E1,-5.9897513E0,-9.48736E0,-7.4789896E0,-5.8116794E0,-9.675571E0,9.7904215E0,-4.1981034E0,-5.522883E0,-5.320923E-1,-2.4187983E1,-1.0951104E1,-1.104879E1,-6.198235E0,-7.6536636E0,-1.1505863E1,-2.4098127E0,-8.308106E0,1.1453973E1,3.2687318E0,-1.0375447E1,1.2414769E1,1.6184416E1,1.106925E1,-1.6936316E1,8.897162E0,1.3374057E1,4.109085E0,1.2941342E1,1.9096457E1,1.9729836E1,1.5854009E1,8.443294E1,3.5527214E1,1.0547223E1,2.6018797E1,-3.6801476E0,4.8248034E0,4.431283E0,-1.9986502E1,-1.1311904E1,2.5778782E1,5.434524E0,2.2122705E1,1.7783998E1,6.2205477E0,1.2938239E1,2.860983E1,1.4247281E1,-7.942048E0],"categories":[],"categories_nodes":[],"categories_segments":[],"categories_sizes":[],"default_left":[0,0,0,0,0,0,0,0,0,0,0,0,0,0,0,0,0,0,0,0,0,0,0,0,0,0,0,0,0,0,0,0,0,0,0,0,0,0,0,0,0,0,0,0,0,0,0,0,0,0,0,0,0,0,0,0,0,0,0,0,0,0,0,0,0,0,0,0,0,0,0,0,0,0,0,0,0,0,0,0,0,0,0,0,0,0,0,0,0,0,0,0,0,0,0,0,0,0,0,0,0,0,0,0,0,0,0,0,0,0,0,0,0,0,0,0,0],"id":19,"left_children":[1,3,5,7,9,11,13,15,17,19,21,23,25,27,29,-1,31,33,35,37,39,41,43,45,47,49,51,53,55,57,59,61,63,-1,65,67,69,71,73,75,77,79,81,83,85,87,89,91,93,95,97,99,-1,101,103,105,107,109,111,113,115,-1,-1,-1,-1,-1,-1,-1,-1,-1,-1,-1,-1,-1,-1,-1,-1,-1,-1,-1,-1,-1,-1,-1,-1,-1,-1,-1,-1,-1,-1,-1,-1,-1,-1,-1,-1,-1,-1,-1,-1,-1,-1,-1,-1,-1,-1,-1,-1,-1,-1,-1,-1,-1,-1,-1,-1],"loss_changes":[3.815875E7,3.46958E5,1.63479E6,8.0565E4,4.729115E5,9.28888E5,5.03831E5,3.5246E4,3.69235E4,1.100285E5,5.431162E5,1.17076E5,7.58504E5,3.7683275E5,1.4171775E5,0E0,1.89885E4,5.30725E3,1.809E4,1.4981875E5,8.264525E4,2.3803125E4,7.219226E5,4.021675E4,2.8598506E5,9.0814E4,2.3618125E5,8.238911E5,1.0646908E6,3.8789125E5,1.1199005E6,5.70485E4,2.37045E4,0E0,5.39E2,3.6411875E4,1.90095E4,9.779225E4,5.452364E4,8.985522E3,1.2292825E5,1.52270625E4,1.563175E4,2.2304938E4,3.4397906E4,1.8363947E5,4.310675E4,7.917255E5,9.5205375E4,1.261615E5,9.0257E4,5.5815625E4,0E0,2.4307475E5,4.423557E5,2.8507588E5,2.212665E6,2.6325366E5,1.9177275E5,1.889965E5,5.8277844E5,0E0,0E0,0E0,0E0,0E0,0E0,0E0,0E0,0E0,0E0,0E0,0E0,0E0,0E0,0E0,0E0,0E0,0E0,0E0,0E0,0E0,0E0,0E0,0E0,0E0,0E0,0E0,0E0,0E0,0E0,0E0,0E0,0E0,0E0,0E0,0E0,0E0,0E0,0E0,0E0,0E0,0E0,0E0,0E0,0E0,0E0,0E0,0E0,0E0,0E0,0E0,0E0,0E0,0E0,0E0,0E0],"parents":[2147483647,0,0,1,1,2,2,3,3,4,4,5,5,6,6,7,7,8,8,9,9,10,10,11,11,12,12,13,13,14,14,16,16,17,17,18,18,19,19,20,20,21,21,22,22,23,23,24,24,25,25,26,26,27,27,28,28,29,29,30,30,31,31,32,32,34,34,35,35,36,36,37,37,38,38,39,39,40,40,41,41,42,42,43,43,44,44,45,45,46,46,47,47,48,48,49,49,50,50,51,51,53,53,54,54,55,55,56,56,57,57,58,58,59,59,60,60],"right_children":[2,4,6,8,10,12,14,16,18,20,22,24,26,28,30,-1,32,34,36,38,40,42,44,46,48,50,52,54,56,58,60,62,64,-1,66,68,70,72,74,76,78,80,82,84,86,88,90,92,94,96,98,100,-1,102,104,106,108,110,112,114,116,-1,-1,-1,-1,-1,-1,-1,-1,-1,-1,-1,-1,-1,-1,-1,-1,-1,-1,-1,-1,-1,-1,-1,-1,-1,-1,-1,-1,-1,-1,-1,-1,-1,-1,-1,-1,-1,-1,-1,-1,-1,-1,-1,-1,-1,-1,-1,-1,-1,-1,-1,-1,-1,-1,-1,-1],"split_conditions":[2.018E3,2.015E3,1.11659005E-1,-1.2910296E-2,1E1,-5.4884297E-1,8.6314213E-1,2.013E3,2.013E3,2.017E3,2.017E3,-4.0148798E-1,2.022E3,2.021E3,2.2611569E-1,-1.46638E1,2.014E3,1.4E1,2E0,8.779601E-1,-9.6793777E-1,-5.234156E-1,-7.1767694E-1,5E0,-1.5430883E-1,-9.033558E-1,6E0,2.4702218E-1,6.2541056E-1,2.02E3,2.02E3,-5.197438E-1,-1.3301471E-1,-1.331929E1,1.7213356E-2,2.5E1,7.829801E-1,-7.469721E-1,2E0,2.4E1,-9.307239E-1,3E0,2.2E1,-9.8867756E-1,2.8E1,2.019E3,2.019E3,2.019E3,5.1619668E-2,2.021E3,-6.152846E-1,2E0,2.5564575E0,2.02E3,4.862727E-1,5.981809E-1,2.8848243E-1,2.9E1,9.9887973E-1,2.019E3,7E0,-1.1800092E1,-7.7396965E0,-1.1826957E1,-1.7138435E1,-1.0548308E1,-2.8978088E0,-1.2497861E1,-5.9897513E0,-9.48736E0,-7.4789896E0,-5.8116794E0,-9.675571E0,9.7904215E0,-4.1981034E0,-5.522883E0,-5.320923E-1,-2.4187983E1,-1.0951104E1,-1.104879E1,-6.198235E0,-7.6536636E0,-1.1505863E1,-2.4098127E0,-8.308106E0,1.1453973E1,3.2687318E0,-1.0375447E1,1.2414769E1,1.6184416E1,1.106925E1,-1.6936316E1,8.897162E0,1.3374057E1,4.109085E0,1.2941342E1,1.9096457E1,1.9729836E1,1.5854009E1,8.443294E1,3.5527214E1,1.0547223E1,2.6018797E1,-3.6801476E0,4.8248034E0,4.431283E0,-1.9986502E1,-1.1311904E1,2.5778782E1,5.434524E0,2.2122705E1,1.7783998E1,6.2205477E0,1.2938239E1,2.860983E1,1.4247281E1,-7.942048E0],"split_indices":[0,0,4,5,1,5,4,0,0,0,0,4,0,0,5,0,0,2,1,5,4,4,4,2,4,4,2,4,5,0,0,5,5,0,4,2,5,4,2,2,4,2,2,4,2,0,0,0,4,0,4,2,0,0,4,5,4,2,4,0,2,0,0,0,0,0,0,0,0,0,0,0,0,0,0,0,0,0,0,0,0,0,0,0,0,0,0,0,0,0,0,0,0,0,0,0,0,0,0,0,0,0,0,0,0,0,0,0,0,0,0,0,0,0,0,0,0],"split_type":[0,0,0,0,0,0,0,0,0,0,0,0,0,0,0,0,0,0,0,0,0,0,0,0,0,0,0,0,0,0,0,0,0,0,0,0,0,0,0,0,0,0,0,0,0,0,0,0,0,0,0,0,0,0,0,0,0,0,0,0,0,0,0,0,0,0,0,0,0,0,0,0,0,0,0,0,0,0,0,0,0,0,0,0,0,0,0,0,0,0,0,0,0,0,0,0,0,0,0,0,0,0,0,0,0,0,0,0,0,0,0,0,0,0,0,0,0],"sum_hessian":[3.624E3,1.973E3,1.651E3,8.77E2,1.096E3,8.01E2,8.5E2,4.13E2,4.64E2,8.2E2,2.76E2,2.66E2,5.35E2,5.4E2,3.1E2,5.3E1,3.6E2,9.4E1,3.7E2,5.47E2,2.73E2,1.84E2,9.2E1,1.32E2,1.34E2,5.29E2,6E0,3.24E2,2.16E2,2.2E2,9E1,1.8E2,1.8E2,3.9E1,5.5E1,6.2E1,3.08E2,4.89E2,5.8E1,1.4E1,2.59E2,1.17E2,6.7E1,4.5E1,4.7E1,1.6E1,1.16E2,6E1,7.4E1,2.04E2,3.25E2,5E0,1E0,4.8E1,2.76E2,1.24E2,9.2E1,8.8E1,1.32E2,3.6E1,5.4E1,1.18E2,6.2E1,1.66E2,1.4E1,5.4E1,1E0,4.8E1,1.4E1,2.12E2,9.6E1,8.5E1,4.04E2,2E0,5.6E1,7E0,7E0,7E0,2.52E2,8E0,1.09E2,4.2E1,2.5E1,9E0,3.6E1,4E1,7E0,4E0,1.2E1,2.9E1,8.7E1,1.5E1,4.5E1,5.9E1,1.5E1,1.53E2,5.1E1,1.44E2,1.81E2,1E0,4E0,3.2E1,1.6E1,9E1,1.86E2,1.2E2,4E0,2E1,7.2E1,7.8E1,1E1,1.14E2,1.8E1,1.8E1,1.8E1,1.6E1,3.8E1],"tree_param":{"num_deleted":"0","num_feature":"6","num_nodes":"117","size_leaf_vector":"1"}},{"base_weights":[7.54202E-1,-8.3856026E1,1.018558E2,-9.734968E1,-7.2979744E1,1.3112733E2,7.415E1,-1.0701856E2,-8.8531906E1,-8.382365E1,-4.057604E1,9.227016E1,1.5594063E2,5.7266373E1,1.03281494E2,-1.3224576E1,-1.0294851E2,-1.0626616E2,-8.375216E1,-1.4183058E2,-8.144433E1,-6.8767296E1,1.5939642E1,1.10482666E2,6.716842E1,1.5106218E2,4.6957867E2,2.7826872E1,7.67467E1,1.17922E2,7.583984E1,-9.4175934E1,-1.11152306E2,-1.10551636E2,-7.357507E0,-8.884821E1,-7.16353E1,-1.8215847E1,-1.0677306E2,-5.159708E1,-8.6705246E1,-1.1058296E2,-6.522758E1,-6.2109276E1,9.703548E1,9.021209E1,1.3609367E2,2.0271372E1,1.0441578E2,1.4700775E2,2.0724875E2,8.0211296E1,2.8047083E2,-6.518589E1,7.641519E1,2.9810543E1,1.4428001E2,6.573778E1,1.5188068E2,1.7562569E2,7.687567E0,-1.0629996E1,-6.978013E0,-2.1462538E1,-1.0879716E1,-9.944128E0,-1.2480402E1,-7.6539035E0,-9.287194E0,-7.787586E0,-5.7477393E0,-2.3475873E0,-1.4341208E1,-5.4330416E0,4.193555E0,-7.588012E0,-1.0000018E1,-1.1724991E1,-1.5289795E0,-5.7617245E0,-9.074804E0,-6.926258E0,-1.0316668E0,1.7507778E0,1.0852694E1,2.0374987E0,9.581961E0,1.5952207E1,1.0984864E1,-1.534854E1,8.026783E0,1.2058945E1,3.723854E0,1.4979032E1,-6.908719E-1,2.6004816E1,1.4479625E1,3.2685043E1,2.4286377E0,-4.69932E-1,-1.6096807E1,5.208629E0,2.536714E1,4.8046255E0,-1.7492489E1,2.8306213E1,7.7116165E0,1.7953064E1,3.4965215E0,1.7302908E1,7.5458155E0,5.9158583E0,2.8445688E1,1.2906357E1,-3.2921836E0],"categories":[],"categories_nodes":[],"categories_segments":[],"categories_sizes":[],"default_left":[0,0,0,0,0,0,0,0,0,0,0,0,0,0,0,0,0,0,0,0,0,0,0,0,0,0,0,0,0,0,0,0,0,0,0,0,0,0,0,0,0,0,0,0,0,0,0,0,0,0,0,0,0,0,0,0,0,0,0,0,0,0,0,0,0,0,0,0,0,0,0,0,0,0,0,0,0,0,0,0,0,0,0,0,0,0,0,0,0,0,0,0,0,0,0,0,0,0,0,0,0,0,0,0,0,0,0,0,0,0,0,0,0,0,0],"id":20,"left_children":[1,3,5,7,9,11,13,15,17,19,21,23,25,27,29,-1,31,33,35,37,39,41,43,45,47,49,51,53,55,57,59,61,63,65,-1,67,69,-1,71,73,75,77,79,81,83,85,87,89,91,93,95,-1,97,99,101,103,105,107,109,111,113,-1,-1,-1,-1,-1,-1,-1,-1,-1,-1,-1,-1,-1,-1,-1,-1,-1,-1,-1,-1,-1,-1,-1,-1,-1,-1,-1,-1,-1,-1,-1,-1,-1,-1,-1,-1,-1,-1,-1,-1,-1,-1,-1,-1,-1,-1,-1,-1,-1,-1,-1,-1,-1,-1],"loss_changes":[3.1017622E7,2.82601E5,1.330034E6,6.5382E4,3.820655E5,7.58879E5,4.12646E5,2.88935E4,3.0516E4,1.01761E5,4.424258E5,1.3658625E5,6.75736E5,3.08123E5,1.16004E5,0E0,1.55125E4,5.175375E3,1.654375E4,2.4378062E4,1.197325E5,2.0169812E4,5.9466494E5,8.168875E4,2.3370006E5,7.9334E4,2.152245E5,9.8567675E5,1.0258689E6,3.4620925E5,7.5352E5,4.6118E4,2.075825E4,5.74E2,0E0,5.62075E3,5.6845625E3,0E0,5.461989E4,3.321275E4,8.89815E4,6.466375E3,2.837125E4,1.7068875E4,4.0138812E4,3.8775375E4,3.0437375E4,6.482321E5,7.6997125E4,1.95048E5,6.1269625E4,0E0,6.335247E4,4.3375866E5,6.034673E5,